<GAP_PBE0_TS_MBD>

<!-- PBE0 GAP -->
<Potential label="GAP_2017_10_8_60_21_58_17_989" init_args="IP GAP label=GAP_2017_10_8_60_21_58_17_989"/>
<!-- MBDGAP -->
<Potential label="GAP_2017_10_8_60_22_10_3_473" init_args="Sum init_args_pot1={Potential xml_label=ts calc_args={hirshfeld_vol_name=hirshfeld_avg_volume}} init_args_pot2={IP GAP label=GAP_2017_10_8_60_22_10_3_473}"/>
<Potential label="GAP_confining" init_args="Sum init_args_pot1={IP GAP label=GAP_2017_10_8_60_21_58_17_989} init_args_pot2={IP ConfiningMonomer cutoff=1.5 kbond=368.75 kangle=42.69375 bond_r0=1.09 angle_cos0=-0.3333333333333333}"/>
<Potential label="GAP_confining_ts" init_args="Sum init_args_pot1={Potential xml_label=GAP_confining} init_args_pot2={IP DispTS}"/>
<Potential label="GAP_confining_mbd" init_args="Sum init_args_pot1={Potential xml_label=GAP_confining} init_args_pot2={IP MBD force_using_fd virial_using_fd}"/>
<!-- PBEGAP plus confining monomers plus TS and MBD GAP -->
<Potential label="pbe0_mbd_gap" init_args="Sum init_args_pot1={Potential xml_label=GAP_confining_ts} init_args_pot2={IP GAP label=GAP_2017_10_8_60_22_10_3_473}"/>

<!-- All the SOAPy bits of the potential (only GAP corrections, no intramol or pairwise dispersion) -->
<Potential label="GAP_mid_range" init_args="Sum init_args_pot1={IP GAP label=GAP_2017_10_8_60_21_58_17_989} init_args_pot2={IP GAP label=GAP_2017_10_8_60_22_10_3_473}"/>

<!--<DispTS_params n_types="2" cutoff="15.0" cutoff_transition_width="1.0" only_inter_resid="T" label="dispts">-->
<DispTS_params n_types="2" cutoff="15.0" cutoff_transition_width="1.0" only_inter_resid="T" tail_corr_factor="0.52793433" label="dispts">
<!-- Converted from atomic units (except for r) -->
<per_type_data type="1" atomic_num="1" alpha_free="0.6668312007439030" c6_free="3.8899001042953523" r_vdW_free="1.64" />
<per_type_data type="2" atomic_num="6" alpha_free="1.7337611219341476" c6_free="28.6215384018045143" r_vdW_free="1.9" />
</DispTS_params>
<!-- PBE0 GAP gap_version="1496137870" -->
<GAP_params label="GAP_2017_10_8_60_21_58_17_989" gap_version="1500598995">
  <GAP_data do_core="F">
    <e0 Z="1" value=".39162633878840077E-003"/>
    <e0 Z="2" value=".00000000000000000E+000"/>
    <e0 Z="3" value=".00000000000000000E+000"/>
    <e0 Z="4" value=".00000000000000000E+000"/>
    <e0 Z="5" value=".00000000000000000E+000"/>
    <e0 Z="6" value=".39162633878840077E-003"/>
    <e0 Z="7" value=".00000000000000000E+000"/>
    <e0 Z="8" value=".00000000000000000E+000"/>
    <e0 Z="9" value=".00000000000000000E+000"/>
    <e0 Z="10" value=".00000000000000000E+000"/>
    <e0 Z="11" value=".00000000000000000E+000"/>
    <e0 Z="12" value=".00000000000000000E+000"/>
    <e0 Z="13" value=".00000000000000000E+000"/>
    <e0 Z="14" value=".00000000000000000E+000"/>
    <e0 Z="15" value=".00000000000000000E+000"/>
    <e0 Z="16" value=".00000000000000000E+000"/>
    <e0 Z="17" value=".00000000000000000E+000"/>
    <e0 Z="18" value=".00000000000000000E+000"/>
    <e0 Z="19" value=".00000000000000000E+000"/>
    <e0 Z="20" value=".00000000000000000E+000"/>
    <e0 Z="21" value=".00000000000000000E+000"/>
    <e0 Z="22" value=".00000000000000000E+000"/>
    <e0 Z="23" value=".00000000000000000E+000"/>
    <e0 Z="24" value=".00000000000000000E+000"/>
    <e0 Z="25" value=".00000000000000000E+000"/>
    <e0 Z="26" value=".00000000000000000E+000"/>
    <e0 Z="27" value=".00000000000000000E+000"/>
    <e0 Z="28" value=".00000000000000000E+000"/>
    <e0 Z="29" value=".00000000000000000E+000"/>
    <e0 Z="30" value=".00000000000000000E+000"/>
    <e0 Z="31" value=".00000000000000000E+000"/>
    <e0 Z="32" value=".00000000000000000E+000"/>
    <e0 Z="33" value=".00000000000000000E+000"/>
    <e0 Z="34" value=".00000000000000000E+000"/>
    <e0 Z="35" value=".00000000000000000E+000"/>
    <e0 Z="36" value=".00000000000000000E+000"/>
    <e0 Z="37" value=".00000000000000000E+000"/>
    <e0 Z="38" value=".00000000000000000E+000"/>
    <e0 Z="39" value=".00000000000000000E+000"/>
    <e0 Z="40" value=".00000000000000000E+000"/>
    <e0 Z="41" value=".00000000000000000E+000"/>
    <e0 Z="42" value=".00000000000000000E+000"/>
    <e0 Z="43" value=".00000000000000000E+000"/>
    <e0 Z="44" value=".00000000000000000E+000"/>
    <e0 Z="45" value=".00000000000000000E+000"/>
    <e0 Z="46" value=".00000000000000000E+000"/>
    <e0 Z="47" value=".00000000000000000E+000"/>
    <e0 Z="48" value=".00000000000000000E+000"/>
    <e0 Z="49" value=".00000000000000000E+000"/>
    <e0 Z="50" value=".00000000000000000E+000"/>
    <e0 Z="51" value=".00000000000000000E+000"/>
    <e0 Z="52" value=".00000000000000000E+000"/>
    <e0 Z="53" value=".00000000000000000E+000"/>
    <e0 Z="54" value=".00000000000000000E+000"/>
    <e0 Z="55" value=".00000000000000000E+000"/>
    <e0 Z="56" value=".00000000000000000E+000"/>
    <e0 Z="57" value=".00000000000000000E+000"/>
    <e0 Z="58" value=".00000000000000000E+000"/>
    <e0 Z="59" value=".00000000000000000E+000"/>
    <e0 Z="60" value=".00000000000000000E+000"/>
    <e0 Z="61" value=".00000000000000000E+000"/>
    <e0 Z="62" value=".00000000000000000E+000"/>
    <e0 Z="63" value=".00000000000000000E+000"/>
    <e0 Z="64" value=".00000000000000000E+000"/>
    <e0 Z="65" value=".00000000000000000E+000"/>
    <e0 Z="66" value=".00000000000000000E+000"/>
    <e0 Z="67" value=".00000000000000000E+000"/>
    <e0 Z="68" value=".00000000000000000E+000"/>
    <e0 Z="69" value=".00000000000000000E+000"/>
    <e0 Z="70" value=".00000000000000000E+000"/>
    <e0 Z="71" value=".00000000000000000E+000"/>
    <e0 Z="72" value=".00000000000000000E+000"/>
    <e0 Z="73" value=".00000000000000000E+000"/>
    <e0 Z="74" value=".00000000000000000E+000"/>
    <e0 Z="75" value=".00000000000000000E+000"/>
    <e0 Z="76" value=".00000000000000000E+000"/>
    <e0 Z="77" value=".00000000000000000E+000"/>
    <e0 Z="78" value=".00000000000000000E+000"/>
    <e0 Z="79" value=".00000000000000000E+000"/>
    <e0 Z="80" value=".00000000000000000E+000"/>
    <e0 Z="81" value=".00000000000000000E+000"/>
    <e0 Z="82" value=".00000000000000000E+000"/>
    <e0 Z="83" value=".00000000000000000E+000"/>
    <e0 Z="84" value=".00000000000000000E+000"/>
    <e0 Z="85" value=".00000000000000000E+000"/>
    <e0 Z="86" value=".00000000000000000E+000"/>
    <e0 Z="87" value=".00000000000000000E+000"/>
    <e0 Z="88" value=".00000000000000000E+000"/>
    <e0 Z="89" value=".00000000000000000E+000"/>
    <e0 Z="90" value=".00000000000000000E+000"/>
    <e0 Z="91" value=".00000000000000000E+000"/>
    <e0 Z="92" value=".00000000000000000E+000"/>
    <e0 Z="93" value=".00000000000000000E+000"/>
    <e0 Z="94" value=".00000000000000000E+000"/>
    <e0 Z="95" value=".00000000000000000E+000"/>
    <e0 Z="96" value=".00000000000000000E+000"/>
    <e0 Z="97" value=".00000000000000000E+000"/>
    <e0 Z="98" value=".00000000000000000E+000"/>
    <e0 Z="99" value=".00000000000000000E+000"/>
    <e0 Z="100" value=".00000000000000000E+000"/>
    <e0 Z="101" value=".00000000000000000E+000"/>
    <e0 Z="102" value=".00000000000000000E+000"/>
    <e0 Z="103" value=".00000000000000000E+000"/>
    <e0 Z="104" value=".00000000000000000E+000"/>
    <e0 Z="105" value=".00000000000000000E+000"/>
    <e0 Z="106" value=".00000000000000000E+000"/>
    <e0 Z="107" value=".00000000000000000E+000"/>
    <e0 Z="108" value=".00000000000000000E+000"/>
    <e0 Z="109" value=".00000000000000000E+000"/>
    <e0 Z="110" value=".00000000000000000E+000"/>
    <e0 Z="111" value=".00000000000000000E+000"/>
    <e0 Z="112" value=".00000000000000000E+000"/>
    <e0 Z="113" value=".00000000000000000E+000"/>
    <e0 Z="114" value=".00000000000000000E+000"/>
    <e0 Z="115" value=".00000000000000000E+000"/>
    <e0 Z="116" value=".00000000000000000E+000"/>
  </GAP_data>
  <gpSparse label="GAP_2017_10_8_60_21_58_17_989" n_coordinate="2">
    <gpCoordinates label="GAP_2017_10_8_60_21_58_17_9891" dimensions="1225" signal_variance=".10000000000000000E-001" signal_mean=".00000000000000000E+000" sparsified="T" n_permutations="1" covariance_type="2" zeta="4.0000000000000000" n_sparseX="2000" sparseX_filename="gp-mebox-pbe0-b1b.xml.sparseX.GAP_2017_10_8_60_21_58_17_9891">
      <descriptor>soap atom_sigma=0.5 l_max=8 n_max=8 cutoff=6.0 cutoff_transition_width=1.0 delta=0.01             n_species=2 species_z={1 6} n_sparse=2000 covariance_type=dot_product sparse_method=cur_points zeta=4.0 n_species=2 Z=6 species_Z={6 1 }</descriptor>
      <permutation i="1">1  </permutation>
      <sparseX i="1" alpha="31569.583768684482" sparseCutoff="1.0000000000000000"/>
      <sparseX i="2" alpha="156319.22599077062" sparseCutoff="1.0000000000000000"/>
      <sparseX i="3" alpha="12198.186963474385" sparseCutoff="1.0000000000000000"/>
      <sparseX i="4" alpha="23504.419591357320" sparseCutoff="1.0000000000000000"/>
      <sparseX i="5" alpha="333081.51441036980" sparseCutoff="1.0000000000000000"/>
      <sparseX i="6" alpha="11957.052392791549" sparseCutoff="1.0000000000000000"/>
      <sparseX i="7" alpha="-44253.730332703337" sparseCutoff="1.0000000000000000"/>
      <sparseX i="8" alpha="25782.186565435095" sparseCutoff="1.0000000000000000"/>
      <sparseX i="9" alpha="-124174.46599883186" sparseCutoff="1.0000000000000000"/>
      <sparseX i="10" alpha="15912.797842664917" sparseCutoff="1.0000000000000000"/>
      <sparseX i="11" alpha="36601.800078190128" sparseCutoff="1.0000000000000000"/>
      <sparseX i="12" alpha="35551.582539830611" sparseCutoff="1.0000000000000000"/>
      <sparseX i="13" alpha="-7474.7335002193231" sparseCutoff="1.0000000000000000"/>
      <sparseX i="14" alpha="38317.605592937864" sparseCutoff="1.0000000000000000"/>
      <sparseX i="15" alpha="-48869.105437507475" sparseCutoff="1.0000000000000000"/>
      <sparseX i="16" alpha="-9764.8268302939614" sparseCutoff="1.0000000000000000"/>
      <sparseX i="17" alpha="39263.684562161587" sparseCutoff="1.0000000000000000"/>
      <sparseX i="18" alpha="-158336.64565483102" sparseCutoff="1.0000000000000000"/>
      <sparseX i="19" alpha="-12383.719393066280" sparseCutoff="1.0000000000000000"/>
      <sparseX i="20" alpha="-141037.75093319709" sparseCutoff="1.0000000000000000"/>
      <sparseX i="21" alpha="24747.441804719871" sparseCutoff="1.0000000000000000"/>
      <sparseX i="22" alpha="9253.3687862538136" sparseCutoff="1.0000000000000000"/>
      <sparseX i="23" alpha="-55882.333744993120" sparseCutoff="1.0000000000000000"/>
      <sparseX i="24" alpha="-61929.268064493699" sparseCutoff="1.0000000000000000"/>
      <sparseX i="25" alpha="-10315.137744818750" sparseCutoff="1.0000000000000000"/>
      <sparseX i="26" alpha="93620.081562518855" sparseCutoff="1.0000000000000000"/>
      <sparseX i="27" alpha="100951.49257661399" sparseCutoff="1.0000000000000000"/>
      <sparseX i="28" alpha="-14280.853460855060" sparseCutoff="1.0000000000000000"/>
      <sparseX i="29" alpha="33630.883022067275" sparseCutoff="1.0000000000000000"/>
      <sparseX i="30" alpha="28580.447711329904" sparseCutoff="1.0000000000000000"/>
      <sparseX i="31" alpha="18529.186398304657" sparseCutoff="1.0000000000000000"/>
      <sparseX i="32" alpha="-93072.260433214615" sparseCutoff="1.0000000000000000"/>
      <sparseX i="33" alpha="211325.96711638052" sparseCutoff="1.0000000000000000"/>
      <sparseX i="34" alpha="20209.049295046909" sparseCutoff="1.0000000000000000"/>
      <sparseX i="35" alpha="-135134.45755930906" sparseCutoff="1.0000000000000000"/>
      <sparseX i="36" alpha="8542.4338886849710" sparseCutoff="1.0000000000000000"/>
      <sparseX i="37" alpha="-219278.34566917771" sparseCutoff="1.0000000000000000"/>
      <sparseX i="38" alpha="-49143.760860887123" sparseCutoff="1.0000000000000000"/>
      <sparseX i="39" alpha="30168.760528228922" sparseCutoff="1.0000000000000000"/>
      <sparseX i="40" alpha="10344.423351522379" sparseCutoff="1.0000000000000000"/>
      <sparseX i="41" alpha="-22845.704686001875" sparseCutoff="1.0000000000000000"/>
      <sparseX i="42" alpha="36412.364195025191" sparseCutoff="1.0000000000000000"/>
      <sparseX i="43" alpha="-150142.47228483937" sparseCutoff="1.0000000000000000"/>
      <sparseX i="44" alpha="-26594.004197129227" sparseCutoff="1.0000000000000000"/>
      <sparseX i="45" alpha="-83675.127391572023" sparseCutoff="1.0000000000000000"/>
      <sparseX i="46" alpha="-67087.342931078558" sparseCutoff="1.0000000000000000"/>
      <sparseX i="47" alpha="10079.481041482970" sparseCutoff="1.0000000000000000"/>
      <sparseX i="48" alpha="26305.403059167485" sparseCutoff="1.0000000000000000"/>
      <sparseX i="49" alpha="-201448.33157867278" sparseCutoff="1.0000000000000000"/>
      <sparseX i="50" alpha="-26632.502807468776" sparseCutoff="1.0000000000000000"/>
      <sparseX i="51" alpha="38429.921418477097" sparseCutoff="1.0000000000000000"/>
      <sparseX i="52" alpha="-95822.048289038634" sparseCutoff="1.0000000000000000"/>
      <sparseX i="53" alpha="240986.35986851735" sparseCutoff="1.0000000000000000"/>
      <sparseX i="54" alpha="-47950.050360818619" sparseCutoff="1.0000000000000000"/>
      <sparseX i="55" alpha="165265.39159743127" sparseCutoff="1.0000000000000000"/>
      <sparseX i="56" alpha="-45754.123771634258" sparseCutoff="1.0000000000000000"/>
      <sparseX i="57" alpha="166927.92075388410" sparseCutoff="1.0000000000000000"/>
      <sparseX i="58" alpha="-84290.292237348083" sparseCutoff="1.0000000000000000"/>
      <sparseX i="59" alpha="244503.55763751647" sparseCutoff="1.0000000000000000"/>
      <sparseX i="60" alpha="-16356.580469423649" sparseCutoff="1.0000000000000000"/>
      <sparseX i="61" alpha="-36863.871578693434" sparseCutoff="1.0000000000000000"/>
      <sparseX i="62" alpha="-102587.68028704575" sparseCutoff="1.0000000000000000"/>
      <sparseX i="63" alpha="117177.63304765703" sparseCutoff="1.0000000000000000"/>
      <sparseX i="64" alpha="-53474.042591958132" sparseCutoff="1.0000000000000000"/>
      <sparseX i="65" alpha="44903.077513405886" sparseCutoff="1.0000000000000000"/>
      <sparseX i="66" alpha="38486.808026108170" sparseCutoff="1.0000000000000000"/>
      <sparseX i="67" alpha="-188584.18710752076" sparseCutoff="1.0000000000000000"/>
      <sparseX i="68" alpha="87393.536703316320" sparseCutoff="1.0000000000000000"/>
      <sparseX i="69" alpha="-13764.811283789220" sparseCutoff="1.0000000000000000"/>
      <sparseX i="70" alpha="23704.985151802295" sparseCutoff="1.0000000000000000"/>
      <sparseX i="71" alpha="9167.1492429219670" sparseCutoff="1.0000000000000000"/>
      <sparseX i="72" alpha="13862.527384840805" sparseCutoff="1.0000000000000000"/>
      <sparseX i="73" alpha="-36150.281159721657" sparseCutoff="1.0000000000000000"/>
      <sparseX i="74" alpha="-10008.951405074535" sparseCutoff="1.0000000000000000"/>
      <sparseX i="75" alpha="-31855.177567751998" sparseCutoff="1.0000000000000000"/>
      <sparseX i="76" alpha="-12457.911478137401" sparseCutoff="1.0000000000000000"/>
      <sparseX i="77" alpha="50819.519650452479" sparseCutoff="1.0000000000000000"/>
      <sparseX i="78" alpha="215675.02997061281" sparseCutoff="1.0000000000000000"/>
      <sparseX i="79" alpha="64138.324303318957" sparseCutoff="1.0000000000000000"/>
      <sparseX i="80" alpha="2593.6163670861088" sparseCutoff="1.0000000000000000"/>
      <sparseX i="81" alpha="-6009.2571941218785" sparseCutoff="1.0000000000000000"/>
      <sparseX i="82" alpha="-37655.910423746202" sparseCutoff="1.0000000000000000"/>
      <sparseX i="83" alpha="19295.959528494859" sparseCutoff="1.0000000000000000"/>
      <sparseX i="84" alpha="49040.499472450283" sparseCutoff="1.0000000000000000"/>
      <sparseX i="85" alpha="-119543.92106508643" sparseCutoff="1.0000000000000000"/>
      <sparseX i="86" alpha="8591.9313924199614" sparseCutoff="1.0000000000000000"/>
      <sparseX i="87" alpha="-159843.61908919952" sparseCutoff="1.0000000000000000"/>
      <sparseX i="88" alpha="222957.66873133249" sparseCutoff="1.0000000000000000"/>
      <sparseX i="89" alpha="-30251.397089157941" sparseCutoff="1.0000000000000000"/>
      <sparseX i="90" alpha="-19926.730369998655" sparseCutoff="1.0000000000000000"/>
      <sparseX i="91" alpha="5387.2948641337161" sparseCutoff="1.0000000000000000"/>
      <sparseX i="92" alpha="152449.50106288455" sparseCutoff="1.0000000000000000"/>
      <sparseX i="93" alpha="-68731.819611533152" sparseCutoff="1.0000000000000000"/>
      <sparseX i="94" alpha="145408.72090125125" sparseCutoff="1.0000000000000000"/>
      <sparseX i="95" alpha="-36593.003479946085" sparseCutoff="1.0000000000000000"/>
      <sparseX i="96" alpha="29709.659557141178" sparseCutoff="1.0000000000000000"/>
      <sparseX i="97" alpha="-41058.318549438583" sparseCutoff="1.0000000000000000"/>
      <sparseX i="98" alpha="-124154.54610647430" sparseCutoff="1.0000000000000000"/>
      <sparseX i="99" alpha="12974.807312287083" sparseCutoff="1.0000000000000000"/>
      <sparseX i="100" alpha="-74507.006878393193" sparseCutoff="1.0000000000000000"/>
      <sparseX i="101" alpha="5113.6557074896318" sparseCutoff="1.0000000000000000"/>
      <sparseX i="102" alpha="-16871.778589390455" sparseCutoff="1.0000000000000000"/>
      <sparseX i="103" alpha="45884.622203180479" sparseCutoff="1.0000000000000000"/>
      <sparseX i="104" alpha="-114279.94678251416" sparseCutoff="1.0000000000000000"/>
      <sparseX i="105" alpha="-9418.7620176774781" sparseCutoff="1.0000000000000000"/>
      <sparseX i="106" alpha="-46497.947517410248" sparseCutoff="1.0000000000000000"/>
      <sparseX i="107" alpha="98705.075600876677" sparseCutoff="1.0000000000000000"/>
      <sparseX i="108" alpha="-139487.43270884885" sparseCutoff="1.0000000000000000"/>
      <sparseX i="109" alpha="-23738.938418425758" sparseCutoff="1.0000000000000000"/>
      <sparseX i="110" alpha="312.01237938154628" sparseCutoff="1.0000000000000000"/>
      <sparseX i="111" alpha="-44921.625159246192" sparseCutoff="1.0000000000000000"/>
      <sparseX i="112" alpha="-28354.848008431596" sparseCutoff="1.0000000000000000"/>
      <sparseX i="113" alpha="-3435.4895004582113" sparseCutoff="1.0000000000000000"/>
      <sparseX i="114" alpha="34336.662566965788" sparseCutoff="1.0000000000000000"/>
      <sparseX i="115" alpha="66601.586591333471" sparseCutoff="1.0000000000000000"/>
      <sparseX i="116" alpha="3976.2800317086176" sparseCutoff="1.0000000000000000"/>
      <sparseX i="117" alpha="27179.064508770120" sparseCutoff="1.0000000000000000"/>
      <sparseX i="118" alpha="-36761.007576169577" sparseCutoff="1.0000000000000000"/>
      <sparseX i="119" alpha="179029.21082283187" sparseCutoff="1.0000000000000000"/>
      <sparseX i="120" alpha="68965.711041109244" sparseCutoff="1.0000000000000000"/>
      <sparseX i="121" alpha="-19152.960811483612" sparseCutoff="1.0000000000000000"/>
      <sparseX i="122" alpha="-154972.26417045793" sparseCutoff="1.0000000000000000"/>
      <sparseX i="123" alpha="48301.369568316746" sparseCutoff="1.0000000000000000"/>
      <sparseX i="124" alpha="-63635.596817812897" sparseCutoff="1.0000000000000000"/>
      <sparseX i="125" alpha="-36824.841017195038" sparseCutoff="1.0000000000000000"/>
      <sparseX i="126" alpha="65969.861160768880" sparseCutoff="1.0000000000000000"/>
      <sparseX i="127" alpha="-95626.948650782200" sparseCutoff="1.0000000000000000"/>
      <sparseX i="128" alpha="27305.629293917504" sparseCutoff="1.0000000000000000"/>
      <sparseX i="129" alpha="100070.37813460903" sparseCutoff="1.0000000000000000"/>
      <sparseX i="130" alpha="66262.681222807340" sparseCutoff="1.0000000000000000"/>
      <sparseX i="131" alpha="81391.813217596937" sparseCutoff="1.0000000000000000"/>
      <sparseX i="132" alpha="68971.578180214725" sparseCutoff="1.0000000000000000"/>
      <sparseX i="133" alpha="173104.76309927294" sparseCutoff="1.0000000000000000"/>
      <sparseX i="134" alpha="55974.488629126863" sparseCutoff="1.0000000000000000"/>
      <sparseX i="135" alpha="-24090.797736685523" sparseCutoff="1.0000000000000000"/>
      <sparseX i="136" alpha="26730.101104956273" sparseCutoff="1.0000000000000000"/>
      <sparseX i="137" alpha="-7698.7227892951805" sparseCutoff="1.0000000000000000"/>
      <sparseX i="138" alpha="-18564.832880506234" sparseCutoff="1.0000000000000000"/>
      <sparseX i="139" alpha="-8230.6772601288958" sparseCutoff="1.0000000000000000"/>
      <sparseX i="140" alpha="73180.128776478450" sparseCutoff="1.0000000000000000"/>
      <sparseX i="141" alpha="-87651.444202226005" sparseCutoff="1.0000000000000000"/>
      <sparseX i="142" alpha="-47274.183317721436" sparseCutoff="1.0000000000000000"/>
      <sparseX i="143" alpha="-96880.046634884769" sparseCutoff="1.0000000000000000"/>
      <sparseX i="144" alpha="-22924.785360005462" sparseCutoff="1.0000000000000000"/>
      <sparseX i="145" alpha="-26927.090281408033" sparseCutoff="1.0000000000000000"/>
      <sparseX i="146" alpha="-43361.042658392726" sparseCutoff="1.0000000000000000"/>
      <sparseX i="147" alpha="6927.1536433238343" sparseCutoff="1.0000000000000000"/>
      <sparseX i="148" alpha="-63905.219314822461" sparseCutoff="1.0000000000000000"/>
      <sparseX i="149" alpha="79281.036427230691" sparseCutoff="1.0000000000000000"/>
      <sparseX i="150" alpha="111126.76048742603" sparseCutoff="1.0000000000000000"/>
      <sparseX i="151" alpha="119862.33178423721" sparseCutoff="1.0000000000000000"/>
      <sparseX i="152" alpha="-5556.7887572102745" sparseCutoff="1.0000000000000000"/>
      <sparseX i="153" alpha="-45782.918323486527" sparseCutoff="1.0000000000000000"/>
      <sparseX i="154" alpha="-50304.175389865850" sparseCutoff="1.0000000000000000"/>
      <sparseX i="155" alpha="107110.74299053443" sparseCutoff="1.0000000000000000"/>
      <sparseX i="156" alpha="34862.504655185323" sparseCutoff="1.0000000000000000"/>
      <sparseX i="157" alpha="-54138.195341091363" sparseCutoff="1.0000000000000000"/>
      <sparseX i="158" alpha="101022.11305033141" sparseCutoff="1.0000000000000000"/>
      <sparseX i="159" alpha="-68468.358888485731" sparseCutoff="1.0000000000000000"/>
      <sparseX i="160" alpha="-84576.007054362402" sparseCutoff="1.0000000000000000"/>
      <sparseX i="161" alpha="88389.029732168914" sparseCutoff="1.0000000000000000"/>
      <sparseX i="162" alpha="-3189.0582528819523" sparseCutoff="1.0000000000000000"/>
      <sparseX i="163" alpha="-67749.786700508019" sparseCutoff="1.0000000000000000"/>
      <sparseX i="164" alpha="251445.78407075416" sparseCutoff="1.0000000000000000"/>
      <sparseX i="165" alpha="21036.698132702659" sparseCutoff="1.0000000000000000"/>
      <sparseX i="166" alpha="106188.68935826507" sparseCutoff="1.0000000000000000"/>
      <sparseX i="167" alpha="230098.74934470258" sparseCutoff="1.0000000000000000"/>
      <sparseX i="168" alpha="19002.929883953664" sparseCutoff="1.0000000000000000"/>
      <sparseX i="169" alpha="-73194.111343991404" sparseCutoff="1.0000000000000000"/>
      <sparseX i="170" alpha="20702.823021722757" sparseCutoff="1.0000000000000000"/>
      <sparseX i="171" alpha="50328.824645212117" sparseCutoff="1.0000000000000000"/>
      <sparseX i="172" alpha="40748.164620790514" sparseCutoff="1.0000000000000000"/>
      <sparseX i="173" alpha="70807.507854690353" sparseCutoff="1.0000000000000000"/>
      <sparseX i="174" alpha="7076.2510399354505" sparseCutoff="1.0000000000000000"/>
      <sparseX i="175" alpha="-3700.2066663290911" sparseCutoff="1.0000000000000000"/>
      <sparseX i="176" alpha="-12065.702436123689" sparseCutoff="1.0000000000000000"/>
      <sparseX i="177" alpha="46575.648766885715" sparseCutoff="1.0000000000000000"/>
      <sparseX i="178" alpha="19025.461089569351" sparseCutoff="1.0000000000000000"/>
      <sparseX i="179" alpha="-17936.103342675462" sparseCutoff="1.0000000000000000"/>
      <sparseX i="180" alpha="56425.386607036045" sparseCutoff="1.0000000000000000"/>
      <sparseX i="181" alpha="44119.256622515051" sparseCutoff="1.0000000000000000"/>
      <sparseX i="182" alpha="-69622.638955109811" sparseCutoff="1.0000000000000000"/>
      <sparseX i="183" alpha="-35434.024697602392" sparseCutoff="1.0000000000000000"/>
      <sparseX i="184" alpha="15327.492297174636" sparseCutoff="1.0000000000000000"/>
      <sparseX i="185" alpha="-81329.108329268376" sparseCutoff="1.0000000000000000"/>
      <sparseX i="186" alpha="140.71633870644868" sparseCutoff="1.0000000000000000"/>
      <sparseX i="187" alpha="73936.190816323477" sparseCutoff="1.0000000000000000"/>
      <sparseX i="188" alpha="-150163.84789505179" sparseCutoff="1.0000000000000000"/>
      <sparseX i="189" alpha="25262.541626394432" sparseCutoff="1.0000000000000000"/>
      <sparseX i="190" alpha="153319.09350379830" sparseCutoff="1.0000000000000000"/>
      <sparseX i="191" alpha="-104901.78141457251" sparseCutoff="1.0000000000000000"/>
      <sparseX i="192" alpha="-23397.451634509707" sparseCutoff="1.0000000000000000"/>
      <sparseX i="193" alpha="-227625.48491599844" sparseCutoff="1.0000000000000000"/>
      <sparseX i="194" alpha="-220490.36053054529" sparseCutoff="1.0000000000000000"/>
      <sparseX i="195" alpha="-14589.003649136221" sparseCutoff="1.0000000000000000"/>
      <sparseX i="196" alpha="-31750.464611544048" sparseCutoff="1.0000000000000000"/>
      <sparseX i="197" alpha="79263.125486699922" sparseCutoff="1.0000000000000000"/>
      <sparseX i="198" alpha="-195345.04385365179" sparseCutoff="1.0000000000000000"/>
      <sparseX i="199" alpha="-213194.52851816110" sparseCutoff="1.0000000000000000"/>
      <sparseX i="200" alpha="116514.39906387274" sparseCutoff="1.0000000000000000"/>
      <sparseX i="201" alpha="-24863.845929181465" sparseCutoff="1.0000000000000000"/>
      <sparseX i="202" alpha="34384.437029478766" sparseCutoff="1.0000000000000000"/>
      <sparseX i="203" alpha="-4016.3949416050409" sparseCutoff="1.0000000000000000"/>
      <sparseX i="204" alpha="-94874.870417107260" sparseCutoff="1.0000000000000000"/>
      <sparseX i="205" alpha="47160.440824521029" sparseCutoff="1.0000000000000000"/>
      <sparseX i="206" alpha="26906.500192265088" sparseCutoff="1.0000000000000000"/>
      <sparseX i="207" alpha="-58120.001336932095" sparseCutoff="1.0000000000000000"/>
      <sparseX i="208" alpha="-35227.005092425694" sparseCutoff="1.0000000000000000"/>
      <sparseX i="209" alpha="-44622.214706664308" sparseCutoff="1.0000000000000000"/>
      <sparseX i="210" alpha="167313.61605577893" sparseCutoff="1.0000000000000000"/>
      <sparseX i="211" alpha="43768.504436254232" sparseCutoff="1.0000000000000000"/>
      <sparseX i="212" alpha="111467.54024085017" sparseCutoff="1.0000000000000000"/>
      <sparseX i="213" alpha="132603.21498364318" sparseCutoff="1.0000000000000000"/>
      <sparseX i="214" alpha="-6150.0344516012510" sparseCutoff="1.0000000000000000"/>
      <sparseX i="215" alpha="-24722.185430725152" sparseCutoff="1.0000000000000000"/>
      <sparseX i="216" alpha="-81384.170175283813" sparseCutoff="1.0000000000000000"/>
      <sparseX i="217" alpha="24334.575141281064" sparseCutoff="1.0000000000000000"/>
      <sparseX i="218" alpha="-55862.351072183650" sparseCutoff="1.0000000000000000"/>
      <sparseX i="219" alpha="39263.611415917316" sparseCutoff="1.0000000000000000"/>
      <sparseX i="220" alpha="-50124.559163691694" sparseCutoff="1.0000000000000000"/>
      <sparseX i="221" alpha="-206205.46973580346" sparseCutoff="1.0000000000000000"/>
      <sparseX i="222" alpha="-97320.584617878936" sparseCutoff="1.0000000000000000"/>
      <sparseX i="223" alpha="-26588.249929509300" sparseCutoff="1.0000000000000000"/>
      <sparseX i="224" alpha="-26959.324430618890" sparseCutoff="1.0000000000000000"/>
      <sparseX i="225" alpha="-215613.03207895497" sparseCutoff="1.0000000000000000"/>
      <sparseX i="226" alpha="281679.78061377176" sparseCutoff="1.0000000000000000"/>
      <sparseX i="227" alpha="-16604.638189415542" sparseCutoff="1.0000000000000000"/>
      <sparseX i="228" alpha="-137124.52685676969" sparseCutoff="1.0000000000000000"/>
      <sparseX i="229" alpha="-2230.9147031010493" sparseCutoff="1.0000000000000000"/>
      <sparseX i="230" alpha="33676.562130715174" sparseCutoff="1.0000000000000000"/>
      <sparseX i="231" alpha="-139585.28847678329" sparseCutoff="1.0000000000000000"/>
      <sparseX i="232" alpha="155275.53172890467" sparseCutoff="1.0000000000000000"/>
      <sparseX i="233" alpha="39464.531903721690" sparseCutoff="1.0000000000000000"/>
      <sparseX i="234" alpha="-67267.466624342473" sparseCutoff="1.0000000000000000"/>
      <sparseX i="235" alpha="66476.560679394344" sparseCutoff="1.0000000000000000"/>
      <sparseX i="236" alpha="62821.850225434049" sparseCutoff="1.0000000000000000"/>
      <sparseX i="237" alpha="-30517.602491256061" sparseCutoff="1.0000000000000000"/>
      <sparseX i="238" alpha="43873.170299596932" sparseCutoff="1.0000000000000000"/>
      <sparseX i="239" alpha="-133330.07168132762" sparseCutoff="1.0000000000000000"/>
      <sparseX i="240" alpha="-57719.475338710872" sparseCutoff="1.0000000000000000"/>
      <sparseX i="241" alpha="173264.80216301346" sparseCutoff="1.0000000000000000"/>
      <sparseX i="242" alpha="90323.927542237507" sparseCutoff="1.0000000000000000"/>
      <sparseX i="243" alpha="130224.93740712311" sparseCutoff="1.0000000000000000"/>
      <sparseX i="244" alpha="55554.756805671022" sparseCutoff="1.0000000000000000"/>
      <sparseX i="245" alpha="23938.783106183146" sparseCutoff="1.0000000000000000"/>
      <sparseX i="246" alpha="3349.8099473992111" sparseCutoff="1.0000000000000000"/>
      <sparseX i="247" alpha="9151.8827848662168" sparseCutoff="1.0000000000000000"/>
      <sparseX i="248" alpha="30597.666445660878" sparseCutoff="1.0000000000000000"/>
      <sparseX i="249" alpha="-23482.684400213824" sparseCutoff="1.0000000000000000"/>
      <sparseX i="250" alpha="158121.40906010545" sparseCutoff="1.0000000000000000"/>
      <sparseX i="251" alpha="-110919.05804483985" sparseCutoff="1.0000000000000000"/>
      <sparseX i="252" alpha="-42638.627062961597" sparseCutoff="1.0000000000000000"/>
      <sparseX i="253" alpha="22926.819510345435" sparseCutoff="1.0000000000000000"/>
      <sparseX i="254" alpha="-109043.30793238249" sparseCutoff="1.0000000000000000"/>
      <sparseX i="255" alpha="-57139.953627227595" sparseCutoff="1.0000000000000000"/>
      <sparseX i="256" alpha="38152.742432394683" sparseCutoff="1.0000000000000000"/>
      <sparseX i="257" alpha="-101981.00721440639" sparseCutoff="1.0000000000000000"/>
      <sparseX i="258" alpha="50607.961341492119" sparseCutoff="1.0000000000000000"/>
      <sparseX i="259" alpha="114246.03605529563" sparseCutoff="1.0000000000000000"/>
      <sparseX i="260" alpha="-65029.130394402862" sparseCutoff="1.0000000000000000"/>
      <sparseX i="261" alpha="-68042.892715934882" sparseCutoff="1.0000000000000000"/>
      <sparseX i="262" alpha="77030.138601321509" sparseCutoff="1.0000000000000000"/>
      <sparseX i="263" alpha="-77974.835880632949" sparseCutoff="1.0000000000000000"/>
      <sparseX i="264" alpha="350711.23042351182" sparseCutoff="1.0000000000000000"/>
      <sparseX i="265" alpha="109495.48867871790" sparseCutoff="1.0000000000000000"/>
      <sparseX i="266" alpha="239137.07361517713" sparseCutoff="1.0000000000000000"/>
      <sparseX i="267" alpha="54706.238554655487" sparseCutoff="1.0000000000000000"/>
      <sparseX i="268" alpha="45564.107405000723" sparseCutoff="1.0000000000000000"/>
      <sparseX i="269" alpha="-20231.262011055780" sparseCutoff="1.0000000000000000"/>
      <sparseX i="270" alpha="-418.14239887617299" sparseCutoff="1.0000000000000000"/>
      <sparseX i="271" alpha="-67583.117051151305" sparseCutoff="1.0000000000000000"/>
      <sparseX i="272" alpha="-53281.554082075651" sparseCutoff="1.0000000000000000"/>
      <sparseX i="273" alpha="-23319.467007367926" sparseCutoff="1.0000000000000000"/>
      <sparseX i="274" alpha="101968.03256210506" sparseCutoff="1.0000000000000000"/>
      <sparseX i="275" alpha="-137958.02703398647" sparseCutoff="1.0000000000000000"/>
      <sparseX i="276" alpha="-198556.63685618018" sparseCutoff="1.0000000000000000"/>
      <sparseX i="277" alpha="-104959.73314143244" sparseCutoff="1.0000000000000000"/>
      <sparseX i="278" alpha="-129661.53342161361" sparseCutoff="1.0000000000000000"/>
      <sparseX i="279" alpha="159638.02606747812" sparseCutoff="1.0000000000000000"/>
      <sparseX i="280" alpha="-61308.450580299155" sparseCutoff="1.0000000000000000"/>
      <sparseX i="281" alpha="80393.104484015057" sparseCutoff="1.0000000000000000"/>
      <sparseX i="282" alpha="308.51382617465629" sparseCutoff="1.0000000000000000"/>
      <sparseX i="283" alpha="-1876.9457721087695" sparseCutoff="1.0000000000000000"/>
      <sparseX i="284" alpha="3613.0739568454646" sparseCutoff="1.0000000000000000"/>
      <sparseX i="285" alpha="95341.787119520683" sparseCutoff="1.0000000000000000"/>
      <sparseX i="286" alpha="-24199.433078227714" sparseCutoff="1.0000000000000000"/>
      <sparseX i="287" alpha="-91988.596897290088" sparseCutoff="1.0000000000000000"/>
      <sparseX i="288" alpha="-76078.896311718781" sparseCutoff="1.0000000000000000"/>
      <sparseX i="289" alpha="20375.934724943050" sparseCutoff="1.0000000000000000"/>
      <sparseX i="290" alpha="-19559.370229319746" sparseCutoff="1.0000000000000000"/>
      <sparseX i="291" alpha="59189.226026116055" sparseCutoff="1.0000000000000000"/>
      <sparseX i="292" alpha="152580.89791363728" sparseCutoff="1.0000000000000000"/>
      <sparseX i="293" alpha="-41509.686138659585" sparseCutoff="1.0000000000000000"/>
      <sparseX i="294" alpha="2811.1371635339465" sparseCutoff="1.0000000000000000"/>
      <sparseX i="295" alpha="-56189.388931721798" sparseCutoff="1.0000000000000000"/>
      <sparseX i="296" alpha="32143.323718181207" sparseCutoff="1.0000000000000000"/>
      <sparseX i="297" alpha="24735.841410414319" sparseCutoff="1.0000000000000000"/>
      <sparseX i="298" alpha="-227136.37469268744" sparseCutoff="1.0000000000000000"/>
      <sparseX i="299" alpha="-7099.9519139604599" sparseCutoff="1.0000000000000000"/>
      <sparseX i="300" alpha="201794.08966574669" sparseCutoff="1.0000000000000000"/>
      <sparseX i="301" alpha="43304.224463104634" sparseCutoff="1.0000000000000000"/>
      <sparseX i="302" alpha="-21019.650826188597" sparseCutoff="1.0000000000000000"/>
      <sparseX i="303" alpha="-47110.634889812587" sparseCutoff="1.0000000000000000"/>
      <sparseX i="304" alpha="-131310.51905097737" sparseCutoff="1.0000000000000000"/>
      <sparseX i="305" alpha="-65627.002499932700" sparseCutoff="1.0000000000000000"/>
      <sparseX i="306" alpha="-210553.18881135632" sparseCutoff="1.0000000000000000"/>
      <sparseX i="307" alpha="-66920.671972652475" sparseCutoff="1.0000000000000000"/>
      <sparseX i="308" alpha="129844.64521651425" sparseCutoff="1.0000000000000000"/>
      <sparseX i="309" alpha="-27083.814068068801" sparseCutoff="1.0000000000000000"/>
      <sparseX i="310" alpha="22389.294289042486" sparseCutoff="1.0000000000000000"/>
      <sparseX i="311" alpha="-54839.847426179906" sparseCutoff="1.0000000000000000"/>
      <sparseX i="312" alpha="-13980.671492437286" sparseCutoff="1.0000000000000000"/>
      <sparseX i="313" alpha="-126941.18552098073" sparseCutoff="1.0000000000000000"/>
      <sparseX i="314" alpha="42421.636480430534" sparseCutoff="1.0000000000000000"/>
      <sparseX i="315" alpha="44084.865165609917" sparseCutoff="1.0000000000000000"/>
      <sparseX i="316" alpha="-115991.48999218023" sparseCutoff="1.0000000000000000"/>
      <sparseX i="317" alpha="-403082.20109256206" sparseCutoff="1.0000000000000000"/>
      <sparseX i="318" alpha="21235.208506058207" sparseCutoff="1.0000000000000000"/>
      <sparseX i="319" alpha="7101.8812045742179" sparseCutoff="1.0000000000000000"/>
      <sparseX i="320" alpha="-136895.51587916655" sparseCutoff="1.0000000000000000"/>
      <sparseX i="321" alpha="7218.9623474689724" sparseCutoff="1.0000000000000000"/>
      <sparseX i="322" alpha="-29573.907089041055" sparseCutoff="1.0000000000000000"/>
      <sparseX i="323" alpha="236600.52919413266" sparseCutoff="1.0000000000000000"/>
      <sparseX i="324" alpha="-131476.28846429387" sparseCutoff="1.0000000000000000"/>
      <sparseX i="325" alpha="48064.473132241612" sparseCutoff="1.0000000000000000"/>
      <sparseX i="326" alpha="26103.726180052017" sparseCutoff="1.0000000000000000"/>
      <sparseX i="327" alpha="-4476.2749474480333" sparseCutoff="1.0000000000000000"/>
      <sparseX i="328" alpha="80445.002619822073" sparseCutoff="1.0000000000000000"/>
      <sparseX i="329" alpha="20267.442226938245" sparseCutoff="1.0000000000000000"/>
      <sparseX i="330" alpha="46288.031269740328" sparseCutoff="1.0000000000000000"/>
      <sparseX i="331" alpha="117886.79488887894" sparseCutoff="1.0000000000000000"/>
      <sparseX i="332" alpha="-62347.385648040065" sparseCutoff="1.0000000000000000"/>
      <sparseX i="333" alpha="139472.62968704820" sparseCutoff="1.0000000000000000"/>
      <sparseX i="334" alpha="-11022.621325403516" sparseCutoff="1.0000000000000000"/>
      <sparseX i="335" alpha="91399.864844407770" sparseCutoff="1.0000000000000000"/>
      <sparseX i="336" alpha="108554.94677187220" sparseCutoff="1.0000000000000000"/>
      <sparseX i="337" alpha="-58287.222109189090" sparseCutoff="1.0000000000000000"/>
      <sparseX i="338" alpha="-1643.6994706218925" sparseCutoff="1.0000000000000000"/>
      <sparseX i="339" alpha="-125972.46522704330" sparseCutoff="1.0000000000000000"/>
      <sparseX i="340" alpha="33362.880950261082" sparseCutoff="1.0000000000000000"/>
      <sparseX i="341" alpha="12593.160633036088" sparseCutoff="1.0000000000000000"/>
      <sparseX i="342" alpha="-121015.12994507469" sparseCutoff="1.0000000000000000"/>
      <sparseX i="343" alpha="-27337.177067204124" sparseCutoff="1.0000000000000000"/>
      <sparseX i="344" alpha="-99227.131832106636" sparseCutoff="1.0000000000000000"/>
      <sparseX i="345" alpha="4173.8526542661730" sparseCutoff="1.0000000000000000"/>
      <sparseX i="346" alpha="-10464.953860086476" sparseCutoff="1.0000000000000000"/>
      <sparseX i="347" alpha="140095.92854653744" sparseCutoff="1.0000000000000000"/>
      <sparseX i="348" alpha="-16415.756415290518" sparseCutoff="1.0000000000000000"/>
      <sparseX i="349" alpha="-25443.361787777063" sparseCutoff="1.0000000000000000"/>
      <sparseX i="350" alpha="46599.783243147082" sparseCutoff="1.0000000000000000"/>
      <sparseX i="351" alpha="-62143.826995724317" sparseCutoff="1.0000000000000000"/>
      <sparseX i="352" alpha="112517.77933551604" sparseCutoff="1.0000000000000000"/>
      <sparseX i="353" alpha="-7238.1315829289379" sparseCutoff="1.0000000000000000"/>
      <sparseX i="354" alpha="-147503.36276429356" sparseCutoff="1.0000000000000000"/>
      <sparseX i="355" alpha="119564.36230554915" sparseCutoff="1.0000000000000000"/>
      <sparseX i="356" alpha="27002.630219022842" sparseCutoff="1.0000000000000000"/>
      <sparseX i="357" alpha="-292367.52624082530" sparseCutoff="1.0000000000000000"/>
      <sparseX i="358" alpha="31961.256409397422" sparseCutoff="1.0000000000000000"/>
      <sparseX i="359" alpha="168300.63574497594" sparseCutoff="1.0000000000000000"/>
      <sparseX i="360" alpha="96090.961582042321" sparseCutoff="1.0000000000000000"/>
      <sparseX i="361" alpha="3300.2791487423310" sparseCutoff="1.0000000000000000"/>
      <sparseX i="362" alpha="-5086.0549339184890" sparseCutoff="1.0000000000000000"/>
      <sparseX i="363" alpha="285734.42796912137" sparseCutoff="1.0000000000000000"/>
      <sparseX i="364" alpha="225748.38716896629" sparseCutoff="1.0000000000000000"/>
      <sparseX i="365" alpha="-169089.63537911043" sparseCutoff="1.0000000000000000"/>
      <sparseX i="366" alpha="-64069.645164752343" sparseCutoff="1.0000000000000000"/>
      <sparseX i="367" alpha="48326.807227165627" sparseCutoff="1.0000000000000000"/>
      <sparseX i="368" alpha="211970.31510323964" sparseCutoff="1.0000000000000000"/>
      <sparseX i="369" alpha="41457.117917766227" sparseCutoff="1.0000000000000000"/>
      <sparseX i="370" alpha="39662.077671779007" sparseCutoff="1.0000000000000000"/>
      <sparseX i="371" alpha="-132232.61130617248" sparseCutoff="1.0000000000000000"/>
      <sparseX i="372" alpha="-30078.626154462057" sparseCutoff="1.0000000000000000"/>
      <sparseX i="373" alpha="187965.27021141440" sparseCutoff="1.0000000000000000"/>
      <sparseX i="374" alpha="-160060.86747157059" sparseCutoff="1.0000000000000000"/>
      <sparseX i="375" alpha="35604.530899995938" sparseCutoff="1.0000000000000000"/>
      <sparseX i="376" alpha="62566.616640346976" sparseCutoff="1.0000000000000000"/>
      <sparseX i="377" alpha="23693.610041359836" sparseCutoff="1.0000000000000000"/>
      <sparseX i="378" alpha="116187.63216554352" sparseCutoff="1.0000000000000000"/>
      <sparseX i="379" alpha="3623.0545164807213" sparseCutoff="1.0000000000000000"/>
      <sparseX i="380" alpha="20824.965821816597" sparseCutoff="1.0000000000000000"/>
      <sparseX i="381" alpha="-51167.020621425982" sparseCutoff="1.0000000000000000"/>
      <sparseX i="382" alpha="172702.67979602862" sparseCutoff="1.0000000000000000"/>
      <sparseX i="383" alpha="51382.071619452385" sparseCutoff="1.0000000000000000"/>
      <sparseX i="384" alpha="-26164.358611355347" sparseCutoff="1.0000000000000000"/>
      <sparseX i="385" alpha="-35467.149650005151" sparseCutoff="1.0000000000000000"/>
      <sparseX i="386" alpha="-131451.34003546194" sparseCutoff="1.0000000000000000"/>
      <sparseX i="387" alpha="-44845.250608431546" sparseCutoff="1.0000000000000000"/>
      <sparseX i="388" alpha="99505.981258092550" sparseCutoff="1.0000000000000000"/>
      <sparseX i="389" alpha="138321.53317375894" sparseCutoff="1.0000000000000000"/>
      <sparseX i="390" alpha="52450.873862853339" sparseCutoff="1.0000000000000000"/>
      <sparseX i="391" alpha="-35213.382224212466" sparseCutoff="1.0000000000000000"/>
      <sparseX i="392" alpha="46362.600610861628" sparseCutoff="1.0000000000000000"/>
      <sparseX i="393" alpha="226637.52633841915" sparseCutoff="1.0000000000000000"/>
      <sparseX i="394" alpha="40954.749445370850" sparseCutoff="1.0000000000000000"/>
      <sparseX i="395" alpha="-33387.487064132110" sparseCutoff="1.0000000000000000"/>
      <sparseX i="396" alpha="-58600.345164437829" sparseCutoff="1.0000000000000000"/>
      <sparseX i="397" alpha="1401.1012135279716" sparseCutoff="1.0000000000000000"/>
      <sparseX i="398" alpha="19152.192618398680" sparseCutoff="1.0000000000000000"/>
      <sparseX i="399" alpha="62865.341900875756" sparseCutoff="1.0000000000000000"/>
      <sparseX i="400" alpha="-199897.40978569392" sparseCutoff="1.0000000000000000"/>
      <sparseX i="401" alpha="-317741.13976354100" sparseCutoff="1.0000000000000000"/>
      <sparseX i="402" alpha="27182.967900234067" sparseCutoff="1.0000000000000000"/>
      <sparseX i="403" alpha="-126776.86059191405" sparseCutoff="1.0000000000000000"/>
      <sparseX i="404" alpha="62809.296609640289" sparseCutoff="1.0000000000000000"/>
      <sparseX i="405" alpha="19812.642170197621" sparseCutoff="1.0000000000000000"/>
      <sparseX i="406" alpha="-31902.044384370289" sparseCutoff="1.0000000000000000"/>
      <sparseX i="407" alpha="-233846.24891901936" sparseCutoff="1.0000000000000000"/>
      <sparseX i="408" alpha="220760.56397600422" sparseCutoff="1.0000000000000000"/>
      <sparseX i="409" alpha="-49069.362807367703" sparseCutoff="1.0000000000000000"/>
      <sparseX i="410" alpha="-33076.790457864146" sparseCutoff="1.0000000000000000"/>
      <sparseX i="411" alpha="127404.25800344067" sparseCutoff="1.0000000000000000"/>
      <sparseX i="412" alpha="112125.28688133646" sparseCutoff="1.0000000000000000"/>
      <sparseX i="413" alpha="-8406.8344528709185" sparseCutoff="1.0000000000000000"/>
      <sparseX i="414" alpha="25112.667237238918" sparseCutoff="1.0000000000000000"/>
      <sparseX i="415" alpha="-124862.17488794938" sparseCutoff="1.0000000000000000"/>
      <sparseX i="416" alpha="-99935.792246369965" sparseCutoff="1.0000000000000000"/>
      <sparseX i="417" alpha="108846.36577542548" sparseCutoff="1.0000000000000000"/>
      <sparseX i="418" alpha="82082.261430640967" sparseCutoff="1.0000000000000000"/>
      <sparseX i="419" alpha="-3882.2335522867097" sparseCutoff="1.0000000000000000"/>
      <sparseX i="420" alpha="-47030.310535741824" sparseCutoff="1.0000000000000000"/>
      <sparseX i="421" alpha="-160852.02609305715" sparseCutoff="1.0000000000000000"/>
      <sparseX i="422" alpha="101589.76870444072" sparseCutoff="1.0000000000000000"/>
      <sparseX i="423" alpha="41398.020694212573" sparseCutoff="1.0000000000000000"/>
      <sparseX i="424" alpha="67164.091505811302" sparseCutoff="1.0000000000000000"/>
      <sparseX i="425" alpha="235050.18793201805" sparseCutoff="1.0000000000000000"/>
      <sparseX i="426" alpha="-124426.46924395875" sparseCutoff="1.0000000000000000"/>
      <sparseX i="427" alpha="82234.350545512090" sparseCutoff="1.0000000000000000"/>
      <sparseX i="428" alpha="-72671.715558836018" sparseCutoff="1.0000000000000000"/>
      <sparseX i="429" alpha="121487.88995875785" sparseCutoff="1.0000000000000000"/>
      <sparseX i="430" alpha="-94841.329924829435" sparseCutoff="1.0000000000000000"/>
      <sparseX i="431" alpha="4732.5105570680989" sparseCutoff="1.0000000000000000"/>
      <sparseX i="432" alpha="-17734.888805455117" sparseCutoff="1.0000000000000000"/>
      <sparseX i="433" alpha="195259.84472915772" sparseCutoff="1.0000000000000000"/>
      <sparseX i="434" alpha="32982.201819859009" sparseCutoff="1.0000000000000000"/>
      <sparseX i="435" alpha="-141449.29816189330" sparseCutoff="1.0000000000000000"/>
      <sparseX i="436" alpha="2197.0104399607590" sparseCutoff="1.0000000000000000"/>
      <sparseX i="437" alpha="-204975.29555314436" sparseCutoff="1.0000000000000000"/>
      <sparseX i="438" alpha="45530.334191903865" sparseCutoff="1.0000000000000000"/>
      <sparseX i="439" alpha="-18587.186664939924" sparseCutoff="1.0000000000000000"/>
      <sparseX i="440" alpha="14350.768724639163" sparseCutoff="1.0000000000000000"/>
      <sparseX i="441" alpha="224864.06638531107" sparseCutoff="1.0000000000000000"/>
      <sparseX i="442" alpha="112619.19604801665" sparseCutoff="1.0000000000000000"/>
      <sparseX i="443" alpha="10849.159879497705" sparseCutoff="1.0000000000000000"/>
      <sparseX i="444" alpha="-7666.7418139608835" sparseCutoff="1.0000000000000000"/>
      <sparseX i="445" alpha="73479.596436075211" sparseCutoff="1.0000000000000000"/>
      <sparseX i="446" alpha="-81511.826984665327" sparseCutoff="1.0000000000000000"/>
      <sparseX i="447" alpha="-58476.931958038920" sparseCutoff="1.0000000000000000"/>
      <sparseX i="448" alpha="222401.59301973571" sparseCutoff="1.0000000000000000"/>
      <sparseX i="449" alpha="-50599.974822391043" sparseCutoff="1.0000000000000000"/>
      <sparseX i="450" alpha="-126282.90083998031" sparseCutoff="1.0000000000000000"/>
      <sparseX i="451" alpha="-44589.985245990807" sparseCutoff="1.0000000000000000"/>
      <sparseX i="452" alpha="269500.57436105324" sparseCutoff="1.0000000000000000"/>
      <sparseX i="453" alpha="-118945.22755481565" sparseCutoff="1.0000000000000000"/>
      <sparseX i="454" alpha="28030.695125566919" sparseCutoff="1.0000000000000000"/>
      <sparseX i="455" alpha="-32447.115320495639" sparseCutoff="1.0000000000000000"/>
      <sparseX i="456" alpha="-96402.601523235091" sparseCutoff="1.0000000000000000"/>
      <sparseX i="457" alpha="-72801.226538631978" sparseCutoff="1.0000000000000000"/>
      <sparseX i="458" alpha="85584.809793445282" sparseCutoff="1.0000000000000000"/>
      <sparseX i="459" alpha="-98426.169833924621" sparseCutoff="1.0000000000000000"/>
      <sparseX i="460" alpha="20376.191430056289" sparseCutoff="1.0000000000000000"/>
      <sparseX i="461" alpha="136082.52393629565" sparseCutoff="1.0000000000000000"/>
      <sparseX i="462" alpha="275217.03501229483" sparseCutoff="1.0000000000000000"/>
      <sparseX i="463" alpha="-77779.556704534261" sparseCutoff="1.0000000000000000"/>
      <sparseX i="464" alpha="-148918.59224166215" sparseCutoff="1.0000000000000000"/>
      <sparseX i="465" alpha="71580.149050036824" sparseCutoff="1.0000000000000000"/>
      <sparseX i="466" alpha="-117778.47639892391" sparseCutoff="1.0000000000000000"/>
      <sparseX i="467" alpha="-42754.343090622075" sparseCutoff="1.0000000000000000"/>
      <sparseX i="468" alpha="58894.927174252749" sparseCutoff="1.0000000000000000"/>
      <sparseX i="469" alpha="60437.744964326979" sparseCutoff="1.0000000000000000"/>
      <sparseX i="470" alpha="-119695.71431075408" sparseCutoff="1.0000000000000000"/>
      <sparseX i="471" alpha="46895.009411931751" sparseCutoff="1.0000000000000000"/>
      <sparseX i="472" alpha="-92405.471759890323" sparseCutoff="1.0000000000000000"/>
      <sparseX i="473" alpha="50704.350562478772" sparseCutoff="1.0000000000000000"/>
      <sparseX i="474" alpha="-158666.32902619703" sparseCutoff="1.0000000000000000"/>
      <sparseX i="475" alpha="75105.660328065482" sparseCutoff="1.0000000000000000"/>
      <sparseX i="476" alpha="49398.658600733703" sparseCutoff="1.0000000000000000"/>
      <sparseX i="477" alpha="79889.381334249934" sparseCutoff="1.0000000000000000"/>
      <sparseX i="478" alpha="-188071.60370742044" sparseCutoff="1.0000000000000000"/>
      <sparseX i="479" alpha="109044.52120500318" sparseCutoff="1.0000000000000000"/>
      <sparseX i="480" alpha="-1585.4276988846545" sparseCutoff="1.0000000000000000"/>
      <sparseX i="481" alpha="-48443.651427979305" sparseCutoff="1.0000000000000000"/>
      <sparseX i="482" alpha="54339.448989010612" sparseCutoff="1.0000000000000000"/>
      <sparseX i="483" alpha="-116636.95959971315" sparseCutoff="1.0000000000000000"/>
      <sparseX i="484" alpha="-129068.96304139694" sparseCutoff="1.0000000000000000"/>
      <sparseX i="485" alpha="-96898.998866490991" sparseCutoff="1.0000000000000000"/>
      <sparseX i="486" alpha="73138.306781905165" sparseCutoff="1.0000000000000000"/>
      <sparseX i="487" alpha="-213947.48873106582" sparseCutoff="1.0000000000000000"/>
      <sparseX i="488" alpha="-112404.25877239760" sparseCutoff="1.0000000000000000"/>
      <sparseX i="489" alpha="39213.726634236999" sparseCutoff="1.0000000000000000"/>
      <sparseX i="490" alpha="74487.293878025623" sparseCutoff="1.0000000000000000"/>
      <sparseX i="491" alpha="102870.93122907032" sparseCutoff="1.0000000000000000"/>
      <sparseX i="492" alpha="27348.245595035467" sparseCutoff="1.0000000000000000"/>
      <sparseX i="493" alpha="-2262.5265397186722" sparseCutoff="1.0000000000000000"/>
      <sparseX i="494" alpha="193654.37903221606" sparseCutoff="1.0000000000000000"/>
      <sparseX i="495" alpha="30020.144884612848" sparseCutoff="1.0000000000000000"/>
      <sparseX i="496" alpha="-21152.193843741235" sparseCutoff="1.0000000000000000"/>
      <sparseX i="497" alpha="167953.81574226834" sparseCutoff="1.0000000000000000"/>
      <sparseX i="498" alpha="67949.342955638276" sparseCutoff="1.0000000000000000"/>
      <sparseX i="499" alpha="-42224.924614515010" sparseCutoff="1.0000000000000000"/>
      <sparseX i="500" alpha="-55127.666122742994" sparseCutoff="1.0000000000000000"/>
      <sparseX i="501" alpha="36292.053236656255" sparseCutoff="1.0000000000000000"/>
      <sparseX i="502" alpha="-150183.05685431504" sparseCutoff="1.0000000000000000"/>
      <sparseX i="503" alpha="-257779.45061263689" sparseCutoff="1.0000000000000000"/>
      <sparseX i="504" alpha="33911.795563773092" sparseCutoff="1.0000000000000000"/>
      <sparseX i="505" alpha="-97539.913574275590" sparseCutoff="1.0000000000000000"/>
      <sparseX i="506" alpha="107938.10381388543" sparseCutoff="1.0000000000000000"/>
      <sparseX i="507" alpha="-47672.128460077147" sparseCutoff="1.0000000000000000"/>
      <sparseX i="508" alpha="468.08427637407323" sparseCutoff="1.0000000000000000"/>
      <sparseX i="509" alpha="-66456.470724368191" sparseCutoff="1.0000000000000000"/>
      <sparseX i="510" alpha="33097.561718453959" sparseCutoff="1.0000000000000000"/>
      <sparseX i="511" alpha="-102623.52206713682" sparseCutoff="1.0000000000000000"/>
      <sparseX i="512" alpha="-124407.58347003485" sparseCutoff="1.0000000000000000"/>
      <sparseX i="513" alpha="50605.465466262656" sparseCutoff="1.0000000000000000"/>
      <sparseX i="514" alpha="-322187.86610519775" sparseCutoff="1.0000000000000000"/>
      <sparseX i="515" alpha="-7047.5115702660087" sparseCutoff="1.0000000000000000"/>
      <sparseX i="516" alpha="73047.156572329564" sparseCutoff="1.0000000000000000"/>
      <sparseX i="517" alpha="145221.93134728825" sparseCutoff="1.0000000000000000"/>
      <sparseX i="518" alpha="129874.83427125560" sparseCutoff="1.0000000000000000"/>
      <sparseX i="519" alpha="-131074.46912386033" sparseCutoff="1.0000000000000000"/>
      <sparseX i="520" alpha="-320634.72685878165" sparseCutoff="1.0000000000000000"/>
      <sparseX i="521" alpha="183427.97400508251" sparseCutoff="1.0000000000000000"/>
      <sparseX i="522" alpha="5430.8123937412365" sparseCutoff="1.0000000000000000"/>
      <sparseX i="523" alpha="-31311.851244453446" sparseCutoff="1.0000000000000000"/>
      <sparseX i="524" alpha="48953.082841407289" sparseCutoff="1.0000000000000000"/>
      <sparseX i="525" alpha="121706.68295254612" sparseCutoff="1.0000000000000000"/>
      <sparseX i="526" alpha="208372.49701339609" sparseCutoff="1.0000000000000000"/>
      <sparseX i="527" alpha="34815.765711212138" sparseCutoff="1.0000000000000000"/>
      <sparseX i="528" alpha="-134517.84973438416" sparseCutoff="1.0000000000000000"/>
      <sparseX i="529" alpha="49295.536972811293" sparseCutoff="1.0000000000000000"/>
      <sparseX i="530" alpha="9958.9549835513808" sparseCutoff="1.0000000000000000"/>
      <sparseX i="531" alpha="60124.663271607620" sparseCutoff="1.0000000000000000"/>
      <sparseX i="532" alpha="-44156.197004259149" sparseCutoff="1.0000000000000000"/>
      <sparseX i="533" alpha="-32829.289386568664" sparseCutoff="1.0000000000000000"/>
      <sparseX i="534" alpha="49372.597424119325" sparseCutoff="1.0000000000000000"/>
      <sparseX i="535" alpha="2234.5806778024667" sparseCutoff="1.0000000000000000"/>
      <sparseX i="536" alpha="45487.608637922487" sparseCutoff="1.0000000000000000"/>
      <sparseX i="537" alpha="-14304.654893298084" sparseCutoff="1.0000000000000000"/>
      <sparseX i="538" alpha="15733.219564414949" sparseCutoff="1.0000000000000000"/>
      <sparseX i="539" alpha="-109378.46011926033" sparseCutoff="1.0000000000000000"/>
      <sparseX i="540" alpha="-43729.611278746386" sparseCutoff="1.0000000000000000"/>
      <sparseX i="541" alpha="-47426.667375811521" sparseCutoff="1.0000000000000000"/>
      <sparseX i="542" alpha="-34094.941224945622" sparseCutoff="1.0000000000000000"/>
      <sparseX i="543" alpha="278.14458096050470" sparseCutoff="1.0000000000000000"/>
      <sparseX i="544" alpha="-81811.592761793785" sparseCutoff="1.0000000000000000"/>
      <sparseX i="545" alpha="-12201.772953516229" sparseCutoff="1.0000000000000000"/>
      <sparseX i="546" alpha="-42649.693160296505" sparseCutoff="1.0000000000000000"/>
      <sparseX i="547" alpha="-113079.36175677739" sparseCutoff="1.0000000000000000"/>
      <sparseX i="548" alpha="153124.71722700476" sparseCutoff="1.0000000000000000"/>
      <sparseX i="549" alpha="23972.483666445158" sparseCutoff="1.0000000000000000"/>
      <sparseX i="550" alpha="131798.56050992015" sparseCutoff="1.0000000000000000"/>
      <sparseX i="551" alpha="-71862.026981997100" sparseCutoff="1.0000000000000000"/>
      <sparseX i="552" alpha="45266.849199432821" sparseCutoff="1.0000000000000000"/>
      <sparseX i="553" alpha="70639.903340408477" sparseCutoff="1.0000000000000000"/>
      <sparseX i="554" alpha="-77073.152122867366" sparseCutoff="1.0000000000000000"/>
      <sparseX i="555" alpha="117749.60715521006" sparseCutoff="1.0000000000000000"/>
      <sparseX i="556" alpha="-78930.495527980660" sparseCutoff="1.0000000000000000"/>
      <sparseX i="557" alpha="-17471.455626753173" sparseCutoff="1.0000000000000000"/>
      <sparseX i="558" alpha="-130669.90249743528" sparseCutoff="1.0000000000000000"/>
      <sparseX i="559" alpha="20215.636165237982" sparseCutoff="1.0000000000000000"/>
      <sparseX i="560" alpha="-120031.25319121397" sparseCutoff="1.0000000000000000"/>
      <sparseX i="561" alpha="-4798.8664034372559" sparseCutoff="1.0000000000000000"/>
      <sparseX i="562" alpha="38108.535712854915" sparseCutoff="1.0000000000000000"/>
      <sparseX i="563" alpha="5627.7727429109682" sparseCutoff="1.0000000000000000"/>
      <sparseX i="564" alpha="-172956.39812055923" sparseCutoff="1.0000000000000000"/>
      <sparseX i="565" alpha="99097.354482925977" sparseCutoff="1.0000000000000000"/>
      <sparseX i="566" alpha="-50844.239872566715" sparseCutoff="1.0000000000000000"/>
      <sparseX i="567" alpha="-37471.034936696138" sparseCutoff="1.0000000000000000"/>
      <sparseX i="568" alpha="-65298.248238007276" sparseCutoff="1.0000000000000000"/>
      <sparseX i="569" alpha="-93288.836345791075" sparseCutoff="1.0000000000000000"/>
      <sparseX i="570" alpha="54841.057295364291" sparseCutoff="1.0000000000000000"/>
      <sparseX i="571" alpha="53788.876602709977" sparseCutoff="1.0000000000000000"/>
      <sparseX i="572" alpha="-24868.899979202626" sparseCutoff="1.0000000000000000"/>
      <sparseX i="573" alpha="-45026.849183625149" sparseCutoff="1.0000000000000000"/>
      <sparseX i="574" alpha="-4757.4580671607691" sparseCutoff="1.0000000000000000"/>
      <sparseX i="575" alpha="18184.108390478388" sparseCutoff="1.0000000000000000"/>
      <sparseX i="576" alpha="-9991.5996172142859" sparseCutoff="1.0000000000000000"/>
      <sparseX i="577" alpha="-27163.139179365367" sparseCutoff="1.0000000000000000"/>
      <sparseX i="578" alpha="111057.15846025659" sparseCutoff="1.0000000000000000"/>
      <sparseX i="579" alpha="-9463.7020453469686" sparseCutoff="1.0000000000000000"/>
      <sparseX i="580" alpha="147526.59000449590" sparseCutoff="1.0000000000000000"/>
      <sparseX i="581" alpha="35602.008164618062" sparseCutoff="1.0000000000000000"/>
      <sparseX i="582" alpha="-66271.140030338938" sparseCutoff="1.0000000000000000"/>
      <sparseX i="583" alpha="-24556.700635046163" sparseCutoff="1.0000000000000000"/>
      <sparseX i="584" alpha="58156.721901877841" sparseCutoff="1.0000000000000000"/>
      <sparseX i="585" alpha="-59423.021494155735" sparseCutoff="1.0000000000000000"/>
      <sparseX i="586" alpha="50569.354308987968" sparseCutoff="1.0000000000000000"/>
      <sparseX i="587" alpha="140092.64750353413" sparseCutoff="1.0000000000000000"/>
      <sparseX i="588" alpha="1161.7870220912332" sparseCutoff="1.0000000000000000"/>
      <sparseX i="589" alpha="45888.512130897223" sparseCutoff="1.0000000000000000"/>
      <sparseX i="590" alpha="54380.432188571504" sparseCutoff="1.0000000000000000"/>
      <sparseX i="591" alpha="-83414.417233846834" sparseCutoff="1.0000000000000000"/>
      <sparseX i="592" alpha="62058.356437424613" sparseCutoff="1.0000000000000000"/>
      <sparseX i="593" alpha="-137959.19610467780" sparseCutoff="1.0000000000000000"/>
      <sparseX i="594" alpha="-33231.691207736592" sparseCutoff="1.0000000000000000"/>
      <sparseX i="595" alpha="59424.819285263737" sparseCutoff="1.0000000000000000"/>
      <sparseX i="596" alpha="-12116.570212842586" sparseCutoff="1.0000000000000000"/>
      <sparseX i="597" alpha="-15773.309424360943" sparseCutoff="1.0000000000000000"/>
      <sparseX i="598" alpha="-2840.2466105897065" sparseCutoff="1.0000000000000000"/>
      <sparseX i="599" alpha="-23437.234371956867" sparseCutoff="1.0000000000000000"/>
      <sparseX i="600" alpha="-10127.807956836095" sparseCutoff="1.0000000000000000"/>
      <sparseX i="601" alpha="-24673.863967947011" sparseCutoff="1.0000000000000000"/>
      <sparseX i="602" alpha="-848.51085226263001" sparseCutoff="1.0000000000000000"/>
      <sparseX i="603" alpha="-11838.584113770103" sparseCutoff="1.0000000000000000"/>
      <sparseX i="604" alpha="-7802.8139733419948" sparseCutoff="1.0000000000000000"/>
      <sparseX i="605" alpha="-12513.067502979222" sparseCutoff="1.0000000000000000"/>
      <sparseX i="606" alpha="-12463.551944153271" sparseCutoff="1.0000000000000000"/>
      <sparseX i="607" alpha="9311.7224780923625" sparseCutoff="1.0000000000000000"/>
      <sparseX i="608" alpha="698.90906371415701" sparseCutoff="1.0000000000000000"/>
      <sparseX i="609" alpha="20885.247883907938" sparseCutoff="1.0000000000000000"/>
      <sparseX i="610" alpha="8602.9356201451556" sparseCutoff="1.0000000000000000"/>
      <sparseX i="611" alpha="15169.357149580768" sparseCutoff="1.0000000000000000"/>
      <sparseX i="612" alpha="-13648.191344889747" sparseCutoff="1.0000000000000000"/>
      <sparseX i="613" alpha="47380.861694997686" sparseCutoff="1.0000000000000000"/>
      <sparseX i="614" alpha="21464.768768291266" sparseCutoff="1.0000000000000000"/>
      <sparseX i="615" alpha="11762.425697917073" sparseCutoff="1.0000000000000000"/>
      <sparseX i="616" alpha="-6569.6301660318704" sparseCutoff="1.0000000000000000"/>
      <sparseX i="617" alpha="33802.728576672314" sparseCutoff="1.0000000000000000"/>
      <sparseX i="618" alpha="-45891.172537595026" sparseCutoff="1.0000000000000000"/>
      <sparseX i="619" alpha="3691.5508655049648" sparseCutoff="1.0000000000000000"/>
      <sparseX i="620" alpha="-35993.315444989836" sparseCutoff="1.0000000000000000"/>
      <sparseX i="621" alpha="11558.938299714231" sparseCutoff="1.0000000000000000"/>
      <sparseX i="622" alpha="28226.710319528582" sparseCutoff="1.0000000000000000"/>
      <sparseX i="623" alpha="-3044.5717881219434" sparseCutoff="1.0000000000000000"/>
      <sparseX i="624" alpha="-6361.5801907769974" sparseCutoff="1.0000000000000000"/>
      <sparseX i="625" alpha="-1657.6125489071173" sparseCutoff="1.0000000000000000"/>
      <sparseX i="626" alpha="31880.637265660851" sparseCutoff="1.0000000000000000"/>
      <sparseX i="627" alpha="-14569.010705653591" sparseCutoff="1.0000000000000000"/>
      <sparseX i="628" alpha="31762.782460387287" sparseCutoff="1.0000000000000000"/>
      <sparseX i="629" alpha="2748.7378556921658" sparseCutoff="1.0000000000000000"/>
      <sparseX i="630" alpha="-9136.6894202412404" sparseCutoff="1.0000000000000000"/>
      <sparseX i="631" alpha="-39786.146055445708" sparseCutoff="1.0000000000000000"/>
      <sparseX i="632" alpha="-29577.819591849882" sparseCutoff="1.0000000000000000"/>
      <sparseX i="633" alpha="11429.700203373379" sparseCutoff="1.0000000000000000"/>
      <sparseX i="634" alpha="-10619.413034077306" sparseCutoff="1.0000000000000000"/>
      <sparseX i="635" alpha="-31245.370757287910" sparseCutoff="1.0000000000000000"/>
      <sparseX i="636" alpha="-19861.674865204313" sparseCutoff="1.0000000000000000"/>
      <sparseX i="637" alpha="18693.023656547051" sparseCutoff="1.0000000000000000"/>
      <sparseX i="638" alpha="56152.916415260697" sparseCutoff="1.0000000000000000"/>
      <sparseX i="639" alpha="30340.905548754843" sparseCutoff="1.0000000000000000"/>
      <sparseX i="640" alpha="-27835.539428222262" sparseCutoff="1.0000000000000000"/>
      <sparseX i="641" alpha="1318.8727900883275" sparseCutoff="1.0000000000000000"/>
      <sparseX i="642" alpha="-51486.198425760915" sparseCutoff="1.0000000000000000"/>
      <sparseX i="643" alpha="81600.977924014092" sparseCutoff="1.0000000000000000"/>
      <sparseX i="644" alpha="-478.85575242057507" sparseCutoff="1.0000000000000000"/>
      <sparseX i="645" alpha="-8511.8821395678642" sparseCutoff="1.0000000000000000"/>
      <sparseX i="646" alpha="-11944.756483352945" sparseCutoff="1.0000000000000000"/>
      <sparseX i="647" alpha="-11168.349503291747" sparseCutoff="1.0000000000000000"/>
      <sparseX i="648" alpha="-68810.248651024114" sparseCutoff="1.0000000000000000"/>
      <sparseX i="649" alpha="-29404.491068277763" sparseCutoff="1.0000000000000000"/>
      <sparseX i="650" alpha="696.67116087458078" sparseCutoff="1.0000000000000000"/>
      <sparseX i="651" alpha="-4967.4134535723515" sparseCutoff="1.0000000000000000"/>
      <sparseX i="652" alpha="28344.934108782625" sparseCutoff="1.0000000000000000"/>
      <sparseX i="653" alpha="-20626.838798020566" sparseCutoff="1.0000000000000000"/>
      <sparseX i="654" alpha="-39959.791136125954" sparseCutoff="1.0000000000000000"/>
      <sparseX i="655" alpha="5555.0829382536840" sparseCutoff="1.0000000000000000"/>
      <sparseX i="656" alpha="-40927.357684715040" sparseCutoff="1.0000000000000000"/>
      <sparseX i="657" alpha="18275.496078558106" sparseCutoff="1.0000000000000000"/>
      <sparseX i="658" alpha="214.23853666758083" sparseCutoff="1.0000000000000000"/>
      <sparseX i="659" alpha="13414.238520868297" sparseCutoff="1.0000000000000000"/>
      <sparseX i="660" alpha="70305.558471282959" sparseCutoff="1.0000000000000000"/>
      <sparseX i="661" alpha="23996.583284371489" sparseCutoff="1.0000000000000000"/>
      <sparseX i="662" alpha="10058.268896550951" sparseCutoff="1.0000000000000000"/>
      <sparseX i="663" alpha="21900.728711933472" sparseCutoff="1.0000000000000000"/>
      <sparseX i="664" alpha="-5633.1441590776303" sparseCutoff="1.0000000000000000"/>
      <sparseX i="665" alpha="-3170.3976524958643" sparseCutoff="1.0000000000000000"/>
      <sparseX i="666" alpha="-8025.7641097881897" sparseCutoff="1.0000000000000000"/>
      <sparseX i="667" alpha="-5953.5370868143864" sparseCutoff="1.0000000000000000"/>
      <sparseX i="668" alpha="8272.4484646758883" sparseCutoff="1.0000000000000000"/>
      <sparseX i="669" alpha="-2468.7180098883928" sparseCutoff="1.0000000000000000"/>
      <sparseX i="670" alpha="56865.825597137256" sparseCutoff="1.0000000000000000"/>
      <sparseX i="671" alpha="-46600.186167584092" sparseCutoff="1.0000000000000000"/>
      <sparseX i="672" alpha="13298.376668438053" sparseCutoff="1.0000000000000000"/>
      <sparseX i="673" alpha="-19751.916117995464" sparseCutoff="1.0000000000000000"/>
      <sparseX i="674" alpha="-9479.0642910552961" sparseCutoff="1.0000000000000000"/>
      <sparseX i="675" alpha="-1078.5219393114048" sparseCutoff="1.0000000000000000"/>
      <sparseX i="676" alpha="-15888.778729243699" sparseCutoff="1.0000000000000000"/>
      <sparseX i="677" alpha="-15147.964242336258" sparseCutoff="1.0000000000000000"/>
      <sparseX i="678" alpha="-3923.3309947398152" sparseCutoff="1.0000000000000000"/>
      <sparseX i="679" alpha="1638.4689402661138" sparseCutoff="1.0000000000000000"/>
      <sparseX i="680" alpha="-32556.302893874148" sparseCutoff="1.0000000000000000"/>
      <sparseX i="681" alpha="-15874.458961349794" sparseCutoff="1.0000000000000000"/>
      <sparseX i="682" alpha="-12584.243999679746" sparseCutoff="1.0000000000000000"/>
      <sparseX i="683" alpha="2605.6318396503889" sparseCutoff="1.0000000000000000"/>
      <sparseX i="684" alpha="-38076.817579434835" sparseCutoff="1.0000000000000000"/>
      <sparseX i="685" alpha="-52266.412446125782" sparseCutoff="1.0000000000000000"/>
      <sparseX i="686" alpha="19114.677147291088" sparseCutoff="1.0000000000000000"/>
      <sparseX i="687" alpha="4524.7233533042672" sparseCutoff="1.0000000000000000"/>
      <sparseX i="688" alpha="-20273.364287503660" sparseCutoff="1.0000000000000000"/>
      <sparseX i="689" alpha="-4661.0172423294507" sparseCutoff="1.0000000000000000"/>
      <sparseX i="690" alpha="-11888.185341408385" sparseCutoff="1.0000000000000000"/>
      <sparseX i="691" alpha="-9281.5264400212745" sparseCutoff="1.0000000000000000"/>
      <sparseX i="692" alpha="9657.4468062427513" sparseCutoff="1.0000000000000000"/>
      <sparseX i="693" alpha="4088.6294732790234" sparseCutoff="1.0000000000000000"/>
      <sparseX i="694" alpha="9310.4660061470749" sparseCutoff="1.0000000000000000"/>
      <sparseX i="695" alpha="-84390.590358454530" sparseCutoff="1.0000000000000000"/>
      <sparseX i="696" alpha="14568.534669698684" sparseCutoff="1.0000000000000000"/>
      <sparseX i="697" alpha="-27544.471101397274" sparseCutoff="1.0000000000000000"/>
      <sparseX i="698" alpha="-26481.301244326438" sparseCutoff="1.0000000000000000"/>
      <sparseX i="699" alpha="-30898.500025521815" sparseCutoff="1.0000000000000000"/>
      <sparseX i="700" alpha="13820.176925007969" sparseCutoff="1.0000000000000000"/>
      <sparseX i="701" alpha="-10271.186241693535" sparseCutoff="1.0000000000000000"/>
      <sparseX i="702" alpha="-24849.362304540911" sparseCutoff="1.0000000000000000"/>
      <sparseX i="703" alpha="-25000.892727771348" sparseCutoff="1.0000000000000000"/>
      <sparseX i="704" alpha="93991.256182506550" sparseCutoff="1.0000000000000000"/>
      <sparseX i="705" alpha="34074.104899255311" sparseCutoff="1.0000000000000000"/>
      <sparseX i="706" alpha="53698.745582164091" sparseCutoff="1.0000000000000000"/>
      <sparseX i="707" alpha="-15339.854151293577" sparseCutoff="1.0000000000000000"/>
      <sparseX i="708" alpha="31584.952397807887" sparseCutoff="1.0000000000000000"/>
      <sparseX i="709" alpha="-56687.270746162205" sparseCutoff="1.0000000000000000"/>
      <sparseX i="710" alpha="12508.146152571049" sparseCutoff="1.0000000000000000"/>
      <sparseX i="711" alpha="21639.900315240247" sparseCutoff="1.0000000000000000"/>
      <sparseX i="712" alpha="-72.099177188334366" sparseCutoff="1.0000000000000000"/>
      <sparseX i="713" alpha="-2752.1870440015891" sparseCutoff="1.0000000000000000"/>
      <sparseX i="714" alpha="26062.613029763408" sparseCutoff="1.0000000000000000"/>
      <sparseX i="715" alpha="31601.360916433983" sparseCutoff="1.0000000000000000"/>
      <sparseX i="716" alpha="-138819.63406148183" sparseCutoff="1.0000000000000000"/>
      <sparseX i="717" alpha="126255.36724146364" sparseCutoff="1.0000000000000000"/>
      <sparseX i="718" alpha="-175512.11913063156" sparseCutoff="1.0000000000000000"/>
      <sparseX i="719" alpha="-48346.177407705611" sparseCutoff="1.0000000000000000"/>
      <sparseX i="720" alpha="-22890.004716064890" sparseCutoff="1.0000000000000000"/>
      <sparseX i="721" alpha="-17682.416610460492" sparseCutoff="1.0000000000000000"/>
      <sparseX i="722" alpha="-33244.703591004269" sparseCutoff="1.0000000000000000"/>
      <sparseX i="723" alpha="-58911.089356114098" sparseCutoff="1.0000000000000000"/>
      <sparseX i="724" alpha="128351.20746278821" sparseCutoff="1.0000000000000000"/>
      <sparseX i="725" alpha="10396.341652139903" sparseCutoff="1.0000000000000000"/>
      <sparseX i="726" alpha="11183.015900038805" sparseCutoff="1.0000000000000000"/>
      <sparseX i="727" alpha="15896.527157096896" sparseCutoff="1.0000000000000000"/>
      <sparseX i="728" alpha="-72304.673180561149" sparseCutoff="1.0000000000000000"/>
      <sparseX i="729" alpha="-24509.190270707230" sparseCutoff="1.0000000000000000"/>
      <sparseX i="730" alpha="25314.927661029786" sparseCutoff="1.0000000000000000"/>
      <sparseX i="731" alpha="-85625.952032059504" sparseCutoff="1.0000000000000000"/>
      <sparseX i="732" alpha="-7760.6896204583272" sparseCutoff="1.0000000000000000"/>
      <sparseX i="733" alpha="-5346.8109794984512" sparseCutoff="1.0000000000000000"/>
      <sparseX i="734" alpha="-29732.193880635223" sparseCutoff="1.0000000000000000"/>
      <sparseX i="735" alpha="-45094.494249886913" sparseCutoff="1.0000000000000000"/>
      <sparseX i="736" alpha="12635.052265914814" sparseCutoff="1.0000000000000000"/>
      <sparseX i="737" alpha="194057.89905326284" sparseCutoff="1.0000000000000000"/>
      <sparseX i="738" alpha="-104970.63915660049" sparseCutoff="1.0000000000000000"/>
      <sparseX i="739" alpha="147114.30538239708" sparseCutoff="1.0000000000000000"/>
      <sparseX i="740" alpha="-247139.38573844780" sparseCutoff="1.0000000000000000"/>
      <sparseX i="741" alpha="-34307.335241671564" sparseCutoff="1.0000000000000000"/>
      <sparseX i="742" alpha="-25851.156597355752" sparseCutoff="1.0000000000000000"/>
      <sparseX i="743" alpha="-11223.532704708223" sparseCutoff="1.0000000000000000"/>
      <sparseX i="744" alpha="-11687.970606505049" sparseCutoff="1.0000000000000000"/>
      <sparseX i="745" alpha="-46626.533724150962" sparseCutoff="1.0000000000000000"/>
      <sparseX i="746" alpha="-109340.88207677237" sparseCutoff="1.0000000000000000"/>
      <sparseX i="747" alpha="48253.604669651235" sparseCutoff="1.0000000000000000"/>
      <sparseX i="748" alpha="-94939.284022508393" sparseCutoff="1.0000000000000000"/>
      <sparseX i="749" alpha="-72764.554437161220" sparseCutoff="1.0000000000000000"/>
      <sparseX i="750" alpha="61491.455601493428" sparseCutoff="1.0000000000000000"/>
      <sparseX i="751" alpha="-92144.940573848609" sparseCutoff="1.0000000000000000"/>
      <sparseX i="752" alpha="9474.7017459895578" sparseCutoff="1.0000000000000000"/>
      <sparseX i="753" alpha="98638.900457432508" sparseCutoff="1.0000000000000000"/>
      <sparseX i="754" alpha="-18237.206034852239" sparseCutoff="1.0000000000000000"/>
      <sparseX i="755" alpha="-47139.427134648911" sparseCutoff="1.0000000000000000"/>
      <sparseX i="756" alpha="-60907.811596043633" sparseCutoff="1.0000000000000000"/>
      <sparseX i="757" alpha="-330604.10975896101" sparseCutoff="1.0000000000000000"/>
      <sparseX i="758" alpha="911.53767042917991" sparseCutoff="1.0000000000000000"/>
      <sparseX i="759" alpha="-105465.53601688381" sparseCutoff="1.0000000000000000"/>
      <sparseX i="760" alpha="42548.523293708138" sparseCutoff="1.0000000000000000"/>
      <sparseX i="761" alpha="129108.52267390647" sparseCutoff="1.0000000000000000"/>
      <sparseX i="762" alpha="-53959.449070392096" sparseCutoff="1.0000000000000000"/>
      <sparseX i="763" alpha="-121705.71221271913" sparseCutoff="1.0000000000000000"/>
      <sparseX i="764" alpha="-4155.0401727719382" sparseCutoff="1.0000000000000000"/>
      <sparseX i="765" alpha="56481.542848346231" sparseCutoff="1.0000000000000000"/>
      <sparseX i="766" alpha="-66523.949254449399" sparseCutoff="1.0000000000000000"/>
      <sparseX i="767" alpha="34768.959067009193" sparseCutoff="1.0000000000000000"/>
      <sparseX i="768" alpha="24110.423293841210" sparseCutoff="1.0000000000000000"/>
      <sparseX i="769" alpha="40183.191165490993" sparseCutoff="1.0000000000000000"/>
      <sparseX i="770" alpha="156944.05933650117" sparseCutoff="1.0000000000000000"/>
      <sparseX i="771" alpha="-53397.057906273818" sparseCutoff="1.0000000000000000"/>
      <sparseX i="772" alpha="34802.713678365835" sparseCutoff="1.0000000000000000"/>
      <sparseX i="773" alpha="30209.322333093944" sparseCutoff="1.0000000000000000"/>
      <sparseX i="774" alpha="-163240.70157228829" sparseCutoff="1.0000000000000000"/>
      <sparseX i="775" alpha="47110.962269703487" sparseCutoff="1.0000000000000000"/>
      <sparseX i="776" alpha="26440.543262827869" sparseCutoff="1.0000000000000000"/>
      <sparseX i="777" alpha="805.97488990170586" sparseCutoff="1.0000000000000000"/>
      <sparseX i="778" alpha="-16238.765847036942" sparseCutoff="1.0000000000000000"/>
      <sparseX i="779" alpha="-6295.3673759243775" sparseCutoff="1.0000000000000000"/>
      <sparseX i="780" alpha="-20695.540184416583" sparseCutoff="1.0000000000000000"/>
      <sparseX i="781" alpha="-1790.6810667955360" sparseCutoff="1.0000000000000000"/>
      <sparseX i="782" alpha="-6721.8618829991065" sparseCutoff="1.0000000000000000"/>
      <sparseX i="783" alpha="-8243.9624675613577" sparseCutoff="1.0000000000000000"/>
      <sparseX i="784" alpha="-88147.436615510596" sparseCutoff="1.0000000000000000"/>
      <sparseX i="785" alpha="-17480.054656062552" sparseCutoff="1.0000000000000000"/>
      <sparseX i="786" alpha="41955.212170589482" sparseCutoff="1.0000000000000000"/>
      <sparseX i="787" alpha="20580.585317456771" sparseCutoff="1.0000000000000000"/>
      <sparseX i="788" alpha="87396.765795698680" sparseCutoff="1.0000000000000000"/>
      <sparseX i="789" alpha="-13844.318131738457" sparseCutoff="1.0000000000000000"/>
      <sparseX i="790" alpha="-682.93864124948936" sparseCutoff="1.0000000000000000"/>
      <sparseX i="791" alpha="103516.71729221425" sparseCutoff="1.0000000000000000"/>
      <sparseX i="792" alpha="-207822.37119422422" sparseCutoff="1.0000000000000000"/>
      <sparseX i="793" alpha="53323.230844040801" sparseCutoff="1.0000000000000000"/>
      <sparseX i="794" alpha="162316.16145968705" sparseCutoff="1.0000000000000000"/>
      <sparseX i="795" alpha="-31848.790551935122" sparseCutoff="1.0000000000000000"/>
      <sparseX i="796" alpha="-32148.563718115551" sparseCutoff="1.0000000000000000"/>
      <sparseX i="797" alpha="-16913.973402281103" sparseCutoff="1.0000000000000000"/>
      <sparseX i="798" alpha="-116623.55422187844" sparseCutoff="1.0000000000000000"/>
      <sparseX i="799" alpha="10588.866919301294" sparseCutoff="1.0000000000000000"/>
      <sparseX i="800" alpha="33511.158827440158" sparseCutoff="1.0000000000000000"/>
      <sparseX i="801" alpha="-7080.7921665963631" sparseCutoff="1.0000000000000000"/>
      <sparseX i="802" alpha="38213.131169829532" sparseCutoff="1.0000000000000000"/>
      <sparseX i="803" alpha="11521.600475173118" sparseCutoff="1.0000000000000000"/>
      <sparseX i="804" alpha="-21820.091178818802" sparseCutoff="1.0000000000000000"/>
      <sparseX i="805" alpha="2417.4482294671197" sparseCutoff="1.0000000000000000"/>
      <sparseX i="806" alpha="60876.074898062107" sparseCutoff="1.0000000000000000"/>
      <sparseX i="807" alpha="-10858.164568437631" sparseCutoff="1.0000000000000000"/>
      <sparseX i="808" alpha="-19485.760727592176" sparseCutoff="1.0000000000000000"/>
      <sparseX i="809" alpha="-27967.187532038995" sparseCutoff="1.0000000000000000"/>
      <sparseX i="810" alpha="-46034.872458377024" sparseCutoff="1.0000000000000000"/>
      <sparseX i="811" alpha="-85315.099129224327" sparseCutoff="1.0000000000000000"/>
      <sparseX i="812" alpha="283082.92767461919" sparseCutoff="1.0000000000000000"/>
      <sparseX i="813" alpha="72904.488954071552" sparseCutoff="1.0000000000000000"/>
      <sparseX i="814" alpha="-32944.127979928897" sparseCutoff="1.0000000000000000"/>
      <sparseX i="815" alpha="11738.743545543955" sparseCutoff="1.0000000000000000"/>
      <sparseX i="816" alpha="103392.30765248578" sparseCutoff="1.0000000000000000"/>
      <sparseX i="817" alpha="-15097.711086711071" sparseCutoff="1.0000000000000000"/>
      <sparseX i="818" alpha="31461.391437525039" sparseCutoff="1.0000000000000000"/>
      <sparseX i="819" alpha="-10027.690342753594" sparseCutoff="1.0000000000000000"/>
      <sparseX i="820" alpha="11969.656231572464" sparseCutoff="1.0000000000000000"/>
      <sparseX i="821" alpha="-5324.0319013516291" sparseCutoff="1.0000000000000000"/>
      <sparseX i="822" alpha="-10933.420099877239" sparseCutoff="1.0000000000000000"/>
      <sparseX i="823" alpha="-48599.248017546532" sparseCutoff="1.0000000000000000"/>
      <sparseX i="824" alpha="21352.248619931222" sparseCutoff="1.0000000000000000"/>
      <sparseX i="825" alpha="23282.265105973907" sparseCutoff="1.0000000000000000"/>
      <sparseX i="826" alpha="-86382.896970022179" sparseCutoff="1.0000000000000000"/>
      <sparseX i="827" alpha="-10694.828619183896" sparseCutoff="1.0000000000000000"/>
      <sparseX i="828" alpha="-27492.095780088028" sparseCutoff="1.0000000000000000"/>
      <sparseX i="829" alpha="-28496.808017516349" sparseCutoff="1.0000000000000000"/>
      <sparseX i="830" alpha="-18209.008701577342" sparseCutoff="1.0000000000000000"/>
      <sparseX i="831" alpha="-28132.343749862244" sparseCutoff="1.0000000000000000"/>
      <sparseX i="832" alpha="-38910.292423913117" sparseCutoff="1.0000000000000000"/>
      <sparseX i="833" alpha="-88304.823293935580" sparseCutoff="1.0000000000000000"/>
      <sparseX i="834" alpha="84145.710839859355" sparseCutoff="1.0000000000000000"/>
      <sparseX i="835" alpha="-11246.583071213685" sparseCutoff="1.0000000000000000"/>
      <sparseX i="836" alpha="22614.327568797646" sparseCutoff="1.0000000000000000"/>
      <sparseX i="837" alpha="128443.06196142790" sparseCutoff="1.0000000000000000"/>
      <sparseX i="838" alpha="-119717.87153408788" sparseCutoff="1.0000000000000000"/>
      <sparseX i="839" alpha="-100279.85943091390" sparseCutoff="1.0000000000000000"/>
      <sparseX i="840" alpha="-102901.30986878862" sparseCutoff="1.0000000000000000"/>
      <sparseX i="841" alpha="80538.640495607455" sparseCutoff="1.0000000000000000"/>
      <sparseX i="842" alpha="-55565.481746115453" sparseCutoff="1.0000000000000000"/>
      <sparseX i="843" alpha="-58112.067674215745" sparseCutoff="1.0000000000000000"/>
      <sparseX i="844" alpha="50738.191354402617" sparseCutoff="1.0000000000000000"/>
      <sparseX i="845" alpha="72742.784970016510" sparseCutoff="1.0000000000000000"/>
      <sparseX i="846" alpha="60010.853641804162" sparseCutoff="1.0000000000000000"/>
      <sparseX i="847" alpha="-115238.26902878967" sparseCutoff="1.0000000000000000"/>
      <sparseX i="848" alpha="86484.735428828528" sparseCutoff="1.0000000000000000"/>
      <sparseX i="849" alpha="-92350.925256298666" sparseCutoff="1.0000000000000000"/>
      <sparseX i="850" alpha="-16737.376253090250" sparseCutoff="1.0000000000000000"/>
      <sparseX i="851" alpha="16911.097113895725" sparseCutoff="1.0000000000000000"/>
      <sparseX i="852" alpha="15676.127420808132" sparseCutoff="1.0000000000000000"/>
      <sparseX i="853" alpha="13854.221818315207" sparseCutoff="1.0000000000000000"/>
      <sparseX i="854" alpha="122058.72562296731" sparseCutoff="1.0000000000000000"/>
      <sparseX i="855" alpha="2125.2983253526468" sparseCutoff="1.0000000000000000"/>
      <sparseX i="856" alpha="614.93680082871356" sparseCutoff="1.0000000000000000"/>
      <sparseX i="857" alpha="-57673.125797954403" sparseCutoff="1.0000000000000000"/>
      <sparseX i="858" alpha="52520.698534567608" sparseCutoff="1.0000000000000000"/>
      <sparseX i="859" alpha="6371.7580786072522" sparseCutoff="1.0000000000000000"/>
      <sparseX i="860" alpha="21621.961634642841" sparseCutoff="1.0000000000000000"/>
      <sparseX i="861" alpha="-71896.177101043359" sparseCutoff="1.0000000000000000"/>
      <sparseX i="862" alpha="115338.43354001388" sparseCutoff="1.0000000000000000"/>
      <sparseX i="863" alpha="148066.61211535521" sparseCutoff="1.0000000000000000"/>
      <sparseX i="864" alpha="-16583.063158209119" sparseCutoff="1.0000000000000000"/>
      <sparseX i="865" alpha="-25543.124626198547" sparseCutoff="1.0000000000000000"/>
      <sparseX i="866" alpha="93057.790868093216" sparseCutoff="1.0000000000000000"/>
      <sparseX i="867" alpha="-86609.246874063436" sparseCutoff="1.0000000000000000"/>
      <sparseX i="868" alpha="-94374.866138187033" sparseCutoff="1.0000000000000000"/>
      <sparseX i="869" alpha="26419.039554967701" sparseCutoff="1.0000000000000000"/>
      <sparseX i="870" alpha="119275.00982386000" sparseCutoff="1.0000000000000000"/>
      <sparseX i="871" alpha="27737.576890877921" sparseCutoff="1.0000000000000000"/>
      <sparseX i="872" alpha="185296.03777509724" sparseCutoff="1.0000000000000000"/>
      <sparseX i="873" alpha="38743.712444933502" sparseCutoff="1.0000000000000000"/>
      <sparseX i="874" alpha="-148730.24826920129" sparseCutoff="1.0000000000000000"/>
      <sparseX i="875" alpha="-11049.954138467350" sparseCutoff="1.0000000000000000"/>
      <sparseX i="876" alpha="27292.082280836054" sparseCutoff="1.0000000000000000"/>
      <sparseX i="877" alpha="116800.21357905483" sparseCutoff="1.0000000000000000"/>
      <sparseX i="878" alpha="30030.868342143662" sparseCutoff="1.0000000000000000"/>
      <sparseX i="879" alpha="-53076.269227331963" sparseCutoff="1.0000000000000000"/>
      <sparseX i="880" alpha="7006.6731817168675" sparseCutoff="1.0000000000000000"/>
      <sparseX i="881" alpha="-66559.889461220111" sparseCutoff="1.0000000000000000"/>
      <sparseX i="882" alpha="51525.477845844893" sparseCutoff="1.0000000000000000"/>
      <sparseX i="883" alpha="-30857.703832849376" sparseCutoff="1.0000000000000000"/>
      <sparseX i="884" alpha="-31007.550675737835" sparseCutoff="1.0000000000000000"/>
      <sparseX i="885" alpha="54294.427168636619" sparseCutoff="1.0000000000000000"/>
      <sparseX i="886" alpha="21216.979508579854" sparseCutoff="1.0000000000000000"/>
      <sparseX i="887" alpha="-16276.983499009455" sparseCutoff="1.0000000000000000"/>
      <sparseX i="888" alpha="39199.420185449279" sparseCutoff="1.0000000000000000"/>
      <sparseX i="889" alpha="6484.1823362999030" sparseCutoff="1.0000000000000000"/>
      <sparseX i="890" alpha="-35216.857622148127" sparseCutoff="1.0000000000000000"/>
      <sparseX i="891" alpha="-92366.103307516532" sparseCutoff="1.0000000000000000"/>
      <sparseX i="892" alpha="21230.272919547260" sparseCutoff="1.0000000000000000"/>
      <sparseX i="893" alpha="-108062.90221338512" sparseCutoff="1.0000000000000000"/>
      <sparseX i="894" alpha="63463.862959580263" sparseCutoff="1.0000000000000000"/>
      <sparseX i="895" alpha="96845.889262093478" sparseCutoff="1.0000000000000000"/>
      <sparseX i="896" alpha="-600.46233095381774" sparseCutoff="1.0000000000000000"/>
      <sparseX i="897" alpha="65882.645284982806" sparseCutoff="1.0000000000000000"/>
      <sparseX i="898" alpha="89485.399815986486" sparseCutoff="1.0000000000000000"/>
      <sparseX i="899" alpha="-9220.2498373057151" sparseCutoff="1.0000000000000000"/>
      <sparseX i="900" alpha="-76049.296602569622" sparseCutoff="1.0000000000000000"/>
      <sparseX i="901" alpha="-14812.826035031605" sparseCutoff="1.0000000000000000"/>
      <sparseX i="902" alpha="-19043.439126301990" sparseCutoff="1.0000000000000000"/>
      <sparseX i="903" alpha="-41225.775105231674" sparseCutoff="1.0000000000000000"/>
      <sparseX i="904" alpha="228862.59334312467" sparseCutoff="1.0000000000000000"/>
      <sparseX i="905" alpha="4155.4813357579333" sparseCutoff="1.0000000000000000"/>
      <sparseX i="906" alpha="-11102.427474155367" sparseCutoff="1.0000000000000000"/>
      <sparseX i="907" alpha="-62071.267015463018" sparseCutoff="1.0000000000000000"/>
      <sparseX i="908" alpha="-71386.358016435028" sparseCutoff="1.0000000000000000"/>
      <sparseX i="909" alpha="-105387.02220506694" sparseCutoff="1.0000000000000000"/>
      <sparseX i="910" alpha="-31200.945490741724" sparseCutoff="1.0000000000000000"/>
      <sparseX i="911" alpha="22338.714251776517" sparseCutoff="1.0000000000000000"/>
      <sparseX i="912" alpha="8781.3813395511079" sparseCutoff="1.0000000000000000"/>
      <sparseX i="913" alpha="-30121.079836756853" sparseCutoff="1.0000000000000000"/>
      <sparseX i="914" alpha="-214173.13049049934" sparseCutoff="1.0000000000000000"/>
      <sparseX i="915" alpha="5231.1151103276861" sparseCutoff="1.0000000000000000"/>
      <sparseX i="916" alpha="23057.295033653732" sparseCutoff="1.0000000000000000"/>
      <sparseX i="917" alpha="-39507.009785919581" sparseCutoff="1.0000000000000000"/>
      <sparseX i="918" alpha="-41205.914489571202" sparseCutoff="1.0000000000000000"/>
      <sparseX i="919" alpha="-77269.572263670154" sparseCutoff="1.0000000000000000"/>
      <sparseX i="920" alpha="4760.9629820627406" sparseCutoff="1.0000000000000000"/>
      <sparseX i="921" alpha="141256.14063783336" sparseCutoff="1.0000000000000000"/>
      <sparseX i="922" alpha="70288.271420767152" sparseCutoff="1.0000000000000000"/>
      <sparseX i="923" alpha="20949.119002338142" sparseCutoff="1.0000000000000000"/>
      <sparseX i="924" alpha="221971.41098181205" sparseCutoff="1.0000000000000000"/>
      <sparseX i="925" alpha="-13352.616371880207" sparseCutoff="1.0000000000000000"/>
      <sparseX i="926" alpha="-28390.121074040293" sparseCutoff="1.0000000000000000"/>
      <sparseX i="927" alpha="61109.314694095054" sparseCutoff="1.0000000000000000"/>
      <sparseX i="928" alpha="-168846.27931757233" sparseCutoff="1.0000000000000000"/>
      <sparseX i="929" alpha="121877.50575388000" sparseCutoff="1.0000000000000000"/>
      <sparseX i="930" alpha="-38635.586598023358" sparseCutoff="1.0000000000000000"/>
      <sparseX i="931" alpha="-27151.448556069528" sparseCutoff="1.0000000000000000"/>
      <sparseX i="932" alpha="-90855.905640672107" sparseCutoff="1.0000000000000000"/>
      <sparseX i="933" alpha="50107.297833690282" sparseCutoff="1.0000000000000000"/>
      <sparseX i="934" alpha="82212.801775718210" sparseCutoff="1.0000000000000000"/>
      <sparseX i="935" alpha="21388.901563325024" sparseCutoff="1.0000000000000000"/>
      <sparseX i="936" alpha="-24229.181796010973" sparseCutoff="1.0000000000000000"/>
      <sparseX i="937" alpha="-59074.607625984718" sparseCutoff="1.0000000000000000"/>
      <sparseX i="938" alpha="-4836.9426915547047" sparseCutoff="1.0000000000000000"/>
      <sparseX i="939" alpha="122360.04519435887" sparseCutoff="1.0000000000000000"/>
      <sparseX i="940" alpha="63465.444753285425" sparseCutoff="1.0000000000000000"/>
      <sparseX i="941" alpha="-11528.692323473102" sparseCutoff="1.0000000000000000"/>
      <sparseX i="942" alpha="66104.834054678286" sparseCutoff="1.0000000000000000"/>
      <sparseX i="943" alpha="130031.30704960313" sparseCutoff="1.0000000000000000"/>
      <sparseX i="944" alpha="-3823.4455243851862" sparseCutoff="1.0000000000000000"/>
      <sparseX i="945" alpha="-94258.530188436780" sparseCutoff="1.0000000000000000"/>
      <sparseX i="946" alpha="-20055.191256635713" sparseCutoff="1.0000000000000000"/>
      <sparseX i="947" alpha="-37748.577503253415" sparseCutoff="1.0000000000000000"/>
      <sparseX i="948" alpha="-41560.269772180953" sparseCutoff="1.0000000000000000"/>
      <sparseX i="949" alpha="217026.56113810590" sparseCutoff="1.0000000000000000"/>
      <sparseX i="950" alpha="-61307.992828950570" sparseCutoff="1.0000000000000000"/>
      <sparseX i="951" alpha="95010.142929272828" sparseCutoff="1.0000000000000000"/>
      <sparseX i="952" alpha="-28144.634571481020" sparseCutoff="1.0000000000000000"/>
      <sparseX i="953" alpha="58121.733931341689" sparseCutoff="1.0000000000000000"/>
      <sparseX i="954" alpha="-10406.928631542140" sparseCutoff="1.0000000000000000"/>
      <sparseX i="955" alpha="189208.29974478643" sparseCutoff="1.0000000000000000"/>
      <sparseX i="956" alpha="59560.792034534905" sparseCutoff="1.0000000000000000"/>
      <sparseX i="957" alpha="110443.51906680502" sparseCutoff="1.0000000000000000"/>
      <sparseX i="958" alpha="27427.961731185474" sparseCutoff="1.0000000000000000"/>
      <sparseX i="959" alpha="122841.02635192049" sparseCutoff="1.0000000000000000"/>
      <sparseX i="960" alpha="-4576.5038533880306" sparseCutoff="1.0000000000000000"/>
      <sparseX i="961" alpha="-27535.022725056915" sparseCutoff="1.0000000000000000"/>
      <sparseX i="962" alpha="-21049.157398756259" sparseCutoff="1.0000000000000000"/>
      <sparseX i="963" alpha="3074.7246713306808" sparseCutoff="1.0000000000000000"/>
      <sparseX i="964" alpha="-1411.9528877401647" sparseCutoff="1.0000000000000000"/>
      <sparseX i="965" alpha="34865.158111346980" sparseCutoff="1.0000000000000000"/>
      <sparseX i="966" alpha="-46455.404299898990" sparseCutoff="1.0000000000000000"/>
      <sparseX i="967" alpha="19499.315635359202" sparseCutoff="1.0000000000000000"/>
      <sparseX i="968" alpha="-112303.84974167153" sparseCutoff="1.0000000000000000"/>
      <sparseX i="969" alpha="-77364.586514771305" sparseCutoff="1.0000000000000000"/>
      <sparseX i="970" alpha="-8734.1555340928990" sparseCutoff="1.0000000000000000"/>
      <sparseX i="971" alpha="57434.657838248582" sparseCutoff="1.0000000000000000"/>
      <sparseX i="972" alpha="-7637.6752065164947" sparseCutoff="1.0000000000000000"/>
      <sparseX i="973" alpha="-235955.97814052555" sparseCutoff="1.0000000000000000"/>
      <sparseX i="974" alpha="-34847.227244562695" sparseCutoff="1.0000000000000000"/>
      <sparseX i="975" alpha="29359.310486374005" sparseCutoff="1.0000000000000000"/>
      <sparseX i="976" alpha="-179242.14631446393" sparseCutoff="1.0000000000000000"/>
      <sparseX i="977" alpha="153040.01384830990" sparseCutoff="1.0000000000000000"/>
      <sparseX i="978" alpha="41633.568254844125" sparseCutoff="1.0000000000000000"/>
      <sparseX i="979" alpha="26671.849788036339" sparseCutoff="1.0000000000000000"/>
      <sparseX i="980" alpha="95886.761225794937" sparseCutoff="1.0000000000000000"/>
      <sparseX i="981" alpha="23123.397926099286" sparseCutoff="1.0000000000000000"/>
      <sparseX i="982" alpha="-2515.3811022137479" sparseCutoff="1.0000000000000000"/>
      <sparseX i="983" alpha="-71250.933023494625" sparseCutoff="1.0000000000000000"/>
      <sparseX i="984" alpha="-30141.512811728095" sparseCutoff="1.0000000000000000"/>
      <sparseX i="985" alpha="-14776.803836312007" sparseCutoff="1.0000000000000000"/>
      <sparseX i="986" alpha="90031.444530687339" sparseCutoff="1.0000000000000000"/>
      <sparseX i="987" alpha="31505.257134410233" sparseCutoff="1.0000000000000000"/>
      <sparseX i="988" alpha="-78936.528039192257" sparseCutoff="1.0000000000000000"/>
      <sparseX i="989" alpha="-39976.428616492725" sparseCutoff="1.0000000000000000"/>
      <sparseX i="990" alpha="41714.816218122061" sparseCutoff="1.0000000000000000"/>
      <sparseX i="991" alpha="15067.926726268142" sparseCutoff="1.0000000000000000"/>
      <sparseX i="992" alpha="78893.089906462876" sparseCutoff="1.0000000000000000"/>
      <sparseX i="993" alpha="112782.65833299406" sparseCutoff="1.0000000000000000"/>
      <sparseX i="994" alpha="162302.19323814200" sparseCutoff="1.0000000000000000"/>
      <sparseX i="995" alpha="-14505.699156361865" sparseCutoff="1.0000000000000000"/>
      <sparseX i="996" alpha="-61469.182801552663" sparseCutoff="1.0000000000000000"/>
      <sparseX i="997" alpha="-105876.93059981833" sparseCutoff="1.0000000000000000"/>
      <sparseX i="998" alpha="-4769.8365035393281" sparseCutoff="1.0000000000000000"/>
      <sparseX i="999" alpha="13872.352246416376" sparseCutoff="1.0000000000000000"/>
      <sparseX i="1000" alpha="-62472.702709478908" sparseCutoff="1.0000000000000000"/>
      <sparseX i="1001" alpha="-84698.374693056161" sparseCutoff="1.0000000000000000"/>
      <sparseX i="1002" alpha="-43503.822996220813" sparseCutoff="1.0000000000000000"/>
      <sparseX i="1003" alpha="47364.951262596929" sparseCutoff="1.0000000000000000"/>
      <sparseX i="1004" alpha="7507.3479836373390" sparseCutoff="1.0000000000000000"/>
      <sparseX i="1005" alpha="-113116.07576951687" sparseCutoff="1.0000000000000000"/>
      <sparseX i="1006" alpha="91736.047996330977" sparseCutoff="1.0000000000000000"/>
      <sparseX i="1007" alpha="30626.330089282455" sparseCutoff="1.0000000000000000"/>
      <sparseX i="1008" alpha="-267179.61411650130" sparseCutoff="1.0000000000000000"/>
      <sparseX i="1009" alpha="-110439.58536524272" sparseCutoff="1.0000000000000000"/>
      <sparseX i="1010" alpha="31170.991674202465" sparseCutoff="1.0000000000000000"/>
      <sparseX i="1011" alpha="37828.972343354246" sparseCutoff="1.0000000000000000"/>
      <sparseX i="1012" alpha="2831.3395641576963" sparseCutoff="1.0000000000000000"/>
      <sparseX i="1013" alpha="61269.889954517457" sparseCutoff="1.0000000000000000"/>
      <sparseX i="1014" alpha="-56610.321847503554" sparseCutoff="1.0000000000000000"/>
      <sparseX i="1015" alpha="109710.87701475945" sparseCutoff="1.0000000000000000"/>
      <sparseX i="1016" alpha="102216.38506149984" sparseCutoff="1.0000000000000000"/>
      <sparseX i="1017" alpha="-80161.259115536275" sparseCutoff="1.0000000000000000"/>
      <sparseX i="1018" alpha="-206792.32059422755" sparseCutoff="1.0000000000000000"/>
      <sparseX i="1019" alpha="95431.974876846507" sparseCutoff="1.0000000000000000"/>
      <sparseX i="1020" alpha="-19601.231675144329" sparseCutoff="1.0000000000000000"/>
      <sparseX i="1021" alpha="-23356.877582147888" sparseCutoff="1.0000000000000000"/>
      <sparseX i="1022" alpha="-49842.924372100657" sparseCutoff="1.0000000000000000"/>
      <sparseX i="1023" alpha="15794.947265847093" sparseCutoff="1.0000000000000000"/>
      <sparseX i="1024" alpha="35395.118415595447" sparseCutoff="1.0000000000000000"/>
      <sparseX i="1025" alpha="19365.959223826361" sparseCutoff="1.0000000000000000"/>
      <sparseX i="1026" alpha="-71619.863120668349" sparseCutoff="1.0000000000000000"/>
      <sparseX i="1027" alpha="-13222.990403267730" sparseCutoff="1.0000000000000000"/>
      <sparseX i="1028" alpha="93559.267686650783" sparseCutoff="1.0000000000000000"/>
      <sparseX i="1029" alpha="-162.00712608286884" sparseCutoff="1.0000000000000000"/>
      <sparseX i="1030" alpha="-53039.995338641267" sparseCutoff="1.0000000000000000"/>
      <sparseX i="1031" alpha="15760.862643540619" sparseCutoff="1.0000000000000000"/>
      <sparseX i="1032" alpha="53958.740506923903" sparseCutoff="1.0000000000000000"/>
      <sparseX i="1033" alpha="56210.587219405417" sparseCutoff="1.0000000000000000"/>
      <sparseX i="1034" alpha="37872.833788144526" sparseCutoff="1.0000000000000000"/>
      <sparseX i="1035" alpha="98418.211301744144" sparseCutoff="1.0000000000000000"/>
      <sparseX i="1036" alpha="135997.13545708472" sparseCutoff="1.0000000000000000"/>
      <sparseX i="1037" alpha="-50731.150885521507" sparseCutoff="1.0000000000000000"/>
      <sparseX i="1038" alpha="-51392.044126407447" sparseCutoff="1.0000000000000000"/>
      <sparseX i="1039" alpha="-6137.1576280787267" sparseCutoff="1.0000000000000000"/>
      <sparseX i="1040" alpha="-60548.570607208450" sparseCutoff="1.0000000000000000"/>
      <sparseX i="1041" alpha="23888.901816815614" sparseCutoff="1.0000000000000000"/>
      <sparseX i="1042" alpha="25482.251326510217" sparseCutoff="1.0000000000000000"/>
      <sparseX i="1043" alpha="-9392.7505425097479" sparseCutoff="1.0000000000000000"/>
      <sparseX i="1044" alpha="-83431.938083434346" sparseCutoff="1.0000000000000000"/>
      <sparseX i="1045" alpha="-57205.838831867390" sparseCutoff="1.0000000000000000"/>
      <sparseX i="1046" alpha="107497.70972979169" sparseCutoff="1.0000000000000000"/>
      <sparseX i="1047" alpha="-86410.350487209158" sparseCutoff="1.0000000000000000"/>
      <sparseX i="1048" alpha="-75808.817288214617" sparseCutoff="1.0000000000000000"/>
      <sparseX i="1049" alpha="25920.833756808053" sparseCutoff="1.0000000000000000"/>
      <sparseX i="1050" alpha="-21524.132507432030" sparseCutoff="1.0000000000000000"/>
      <sparseX i="1051" alpha="38845.381927631352" sparseCutoff="1.0000000000000000"/>
      <sparseX i="1052" alpha="28907.931809587764" sparseCutoff="1.0000000000000000"/>
      <sparseX i="1053" alpha="-140594.88296367042" sparseCutoff="1.0000000000000000"/>
      <sparseX i="1054" alpha="-47876.869129381972" sparseCutoff="1.0000000000000000"/>
      <sparseX i="1055" alpha="-128247.05753535232" sparseCutoff="1.0000000000000000"/>
      <sparseX i="1056" alpha="39012.550513825023" sparseCutoff="1.0000000000000000"/>
      <sparseX i="1057" alpha="1735.7726080701716" sparseCutoff="1.0000000000000000"/>
